-1.78906428061797e-07
-2.43279610951768e-07
-2.75466202351790e-07
-3.07652793751811e-07
-3.39839385241761e-07
-3.72025976641783e-07
-4.04212568041804e-07
-4.36399159531754e-07
-4.68585750931775e-07
-5.00772342331797e-07
-5.32958933821747e-07
-5.65145525221768e-07
-5.97332116621790e-07
-6.29518708111740e-07
-6.61705299511761e-07
-6.93891890911783e-07
-7.26078482401732e-07
-7.90451665201775e-07
-8.22638256691725e-07
-8.54824848091747e-07
-8.87011439491768e-07
-9.19198030981718e-07
-9.51384622381739e-07
-7.94421242045372e-07
-6.37457861270454e-07
-4.80494480934087e-07
-3.23531100597720e-07
-1.66567719822802e-07
1.47359040849933e-07
3.04322421624851e-07
4.61285801961218e-07
6.18249182297585e-07
7.75212563072503e-07
9.32175943408870e-07
1.08913932374524e-06
1.24610270452016e-06
1.40306608485652e-06
1.56002946519289e-06
1.71699284596781e-06
1.87395622630418e-06
2.03091960664054e-06
2.18788298741546e-06
2.34484636775183e-06
2.50180974808820e-06
2.65877312886311e-06
2.81573650919948e-06
1.69644497515873e-05
3.11131630335062e-05
4.52618762758941e-05
5.94105895182819e-05
7.35593028002009e-05
8.77080160425887e-05
0.000101856729284977
0.000116005442566895
0.000130154155809283
0.000144302869051671
0.000158451582333590
0.000172600295575978
0.000186749008818366
0.000200897722100285
0.000215046435342673
0.000229195148585060
0.000243343861866979
0.000257492575109367
0.000271641288351755
0.000285790001633674
0.000299938714876062
0.000314087428118450
0.000328236141400369
0.000342384854642756
0.000311331941754155
0.000280279028778792
0.000249226115890191
0.000218173203001589
0.000187120290026227
0.000156067377137625
0.000125014464249024
9.39615512736615e-05
6.29086383850600e-05
3.18557254964584e-05
8.02812521096056e-07
-3.02501003675055e-05
-6.13030132561070e-05
-9.23559262314694e-05
-0.000123408839120071
-0.000154461752008672
-0.000185514664984035
-0.000216567577872636
-0.000247620490761238
-0.000278673403736600
-0.000309726316625202
-0.000340779229513803
-0.000371832142489166
-0.000402885055377767
-0.000386912869913917
-0.000370940684405442
-0.000354968498941592
-0.000338996313477742
-0.000323024127969266
-0.000307051942505416
-0.000291079757041566
-0.000275107571533090
-0.000259135386069240
-0.000243163200605390
-0.000227191015096914
-0.000211218829633064
-0.000195246644169214
-0.000179274458660738
-0.000163302273196888
-0.000147330087733038
-0.000131357902224563
-0.000115385716760713
-9.94135312968625e-05
-8.34413457883867e-05
-6.74691603245367e-05
-5.14969748606867e-05
-3.55247893522109e-05
-1.95526038883609e-05
-1.82805091114455e-05
-1.72575684113478e-05
-1.62346277141081e-05
-1.52116870168684e-05
-1.41887463167707e-05
-1.31658056195310e-05
-1.21428649222914e-05
-1.11199242221936e-05
-1.00969835249540e-05
-9.07404282771430e-06
-8.05110212761657e-06
-7.02816143037690e-06
-6.00522073313724e-06
-4.98228003303950e-06
-3.95933933579984e-06
-2.93639863856017e-06
-1.91345793846244e-06
-8.90517241222770e-07
1.32423456016898e-07
1.15536415611463e-06
2.17830485335430e-06
3.20124555059396e-06
4.22418625069170e-06
5.24712694793136e-06
1.03718008927989e-05
1.55659957547468e-05
2.07601906021824e-05
2.59543854496179e-05
3.11485803115659e-05
3.63427751590015e-05
4.15369700064370e-05
4.67311648683850e-05
5.19253597158206e-05
5.71195545632561e-05
6.23137494252041e-05
6.75079442726396e-05
7.27021391200752e-05
7.78963339820232e-05
8.30905288294587e-05
8.82847236768943e-05
9.34789185388423e-05
9.86731133862778e-05
0.000103867308233713
0.000109061503095661
0.000114255697943097
0.000119449892790532
0.000124644087652480
0.000129838282499916
0.000112349381751707
9.44760217058114e-05
7.66026617098538e-05
5.87293017138961e-05
4.08559416680009e-05
2.29825816720433e-05
5.10922167608567e-06
-1.27641383698096e-05
-3.06374983657672e-05
-4.85108583617248e-05
-6.63842184076200e-05
-8.42575784035777e-05
-0.000102130938399535
-0.000120004298445431
-0.000137877658441388
-0.000173624378483241
-0.000191497738479199
-0.000209371098475156
-0.000227244458521051
-0.000245117818517009
-0.000262991178512967
-0.000280864538558862
-0.000298737898554820
-0.000287332304691208
-0.000275430457338627
-0.000263528610019298
-0.000251626762699970
-0.000239724915347388
-0.000227823068028059
-0.000215921220708731
-0.000204019373356149
-0.000192117526036820
-0.000180215678717492
-0.000168313831364910
-0.000156411984045582
-0.000144510136726253
-0.000132608289373671
-0.000120706442054343
-0.000108804594735014
-9.69027473824324e-05
-8.50009000631039e-05
-7.30990527437754e-05
-6.11972053911936e-05
-4.92953580718651e-05
-3.73935107525366e-05
-2.54916633999547e-05
-1.35898160806263e-05
-1.24061883643419e-05
-1.14042253844644e-05
-1.04022624073864e-05
-9.40029943030833e-06
-8.39833645043085e-06
-7.39637347335283e-06
-6.39441049627480e-06
-5.39244751639733e-06
-4.39048453931930e-06
-3.38852156224128e-06
-2.38655858236380e-06
-1.38459560528578e-06
-3.82632628207755e-07
6.19330351669721e-07
1.62129332874775e-06
2.62325630582577e-06
3.62521928570325e-06
4.62718226278127e-06
5.62914523985929e-06
6.63110821973677e-06
7.63307119681479e-06
8.63503417389282e-06
9.63699715377029e-06
1.06389601308483e-05
-3.65048291222418e-05
-8.44646482089180e-05
-0.000132424467161596
-0.000180384286114274
-0.000228344105200950
-0.000276303924153628
-0.000324263743106306
-0.000372223562192982
-0.000420183381145660
-0.000468143200098338
-0.000516103019185014
-0.000564062838137692
-0.000612022657090370
-0.000659982476177046
-0.000707942295129724
-0.000755902114082402
-0.000803861933169078
-0.000851821752121756
-0.000899781571074434
-0.000947741390161110
-0.000995701209113788
-0.00104366102806647
-0.00109162084715314
-0.00113958066610582
-0.00118141559195928
-0.00122314670618179
-0.00126487782028770
-0.00130660893439361
-0.00134834004861612
-0.00139007116272204
-0.00143180227682795
-0.00147353339105046
-0.00151526450515637
-0.00155699561926229
-0.00159872673348480
-0.00164045784759071
-0.00168218896169662
-0.00172392007591913
-0.00176565119002505
-0.00180738230413096
-0.00184911341835347
-0.00189084453245938
-0.00193257564656530
-0.00197430676078781
-0.00201603787489372
-0.00205776898899964
-0.00209950010322214
-0.00214123121732806
-0.00205186043641989
-0.00196026758923652
-0.00186867474230906
-0.00177708189538161
-0.00168548904819824
-0.00159389620127078
-0.00150230335434332
-0.00141071050715996
-0.00131911766023250
-0.00122752481330504
-0.00113593196612167
-0.00104433911919422
-0.000952746272266757
-0.000861153425083391
-0.000769560578155933
-0.000677967731228474
-0.000586374884045108
-0.000494782037117650
-0.000403189190190191
-0.000311596343006825
-0.000220003496079367
-0.000128410649151909
-3.68178019685427e-05
5.47750449589158e-05
8.28178322151550e-05
0.000109783499890273
0.000136749167490050
0.000163714835089826
0.000190680502764944
0.000217646170364721
0.000244611837964497
0.000271577505639615
0.000298543173239392
0.000325508840839168
0.000352474508514286
0.000379440176114063
0.000406405843713840
0.000433371511388957
0.000460337178988734
0.000487302846588511
0.000514268514263629
0.000541234181863405
0.000568199849463182
0.000595165517138300
0.000622131184738076
0.000649096852337853
0.000676062520012971
0.000703028187612747
0.000664955495152891
0.000624640100507210
0.000584324705974169
0.000544009311441128
0.000503693916795447
0.000463378522262406
0.000423063127729365
0.000382747733083684
0.000342432338550644
0.000302116944017603
0.000261801549371922
0.000221486154838881
0.000181170760305840
0.000140855365660159
0.000100539971127118
6.02245765940770e-05
1.99091819483962e-05
-2.04062125846448e-05
-6.07216071176857e-05
-0.000101037001763367
-0.000141352396296408
-0.000181667790829449
-0.000221983185475129
-0.000262298580008170
-0.000253022090033883
-0.000242035535044240
-0.000231048980085292
-0.000220062425126345
-0.000209075870136701
-0.000198089315177754
-0.000187102760218806
-0.000176116205229163
-0.000165129650270215
-0.000154143095311268
-0.000143156540321624
-0.000132169985362677
-0.000121183430403730
-0.000110196875414086
-9.92103204551386e-05
-8.82237654961912e-05
-7.72372105065477e-05
-6.62506555476002e-05
-5.52641005886528e-05
-4.42775455990093e-05
-3.32909906400618e-05
-2.23044356811144e-05
-1.13178806914709e-05
-3.31325732523448e-07
9.27711628345195e-06
1.88380371901299e-05
2.83989580700949e-05
3.79598789500599e-05
4.75207998567378e-05
5.70817207367029e-05
6.66426416166679e-05
7.62035625233458e-05
8.57644834033108e-05
9.53254042832758e-05
0.000104886325189954
0.000114447246069919
0.000124008166949884
0.000133569087856562
0.000143130008736527
0.000152690929616492
0.000162251850523170
0.000171812771403135
0.000181373692283100
0.000190934613189778
0.000200495534069743
0.000210056454949708
0.000219617375856386
0.000229178296736351
0.000215358648438449
0.000200732773575531
0.000186106898753478
0.000171481023931424
0.000156855149068507
0.000142229274246453
0.000127603399424399
0.000112977524561482
9.83516497394281e-05
8.37257749173746e-05
6.90999000544569e-05
5.44740252324033e-05
3.98481504103498e-05
2.52222755474320e-05
1.05964007253784e-05
-4.02947409667510e-06
-1.86553489595929e-05
-3.32812237816464e-05
-4.79070986037000e-05
-6.25329734666177e-05
-7.71588482886713e-05
-9.17847231107248e-05
-0.000106410597973643
-0.000121036472795696
-0.000116383620767653
-0.000111065985039627
-0.000105748349326458
-0.000100430713613289
-9.51130778852632e-05
-8.97954421720945e-05
-8.44778064589258e-05
-7.91601707308997e-05
-7.38425350177310e-05
-6.85248993045623e-05
-6.32072635765362e-05
-5.78896278633675e-05
-5.25719921501988e-05
-4.72543564221727e-05
-4.19367207090040e-05
-3.66190849958353e-05
-3.13014492678092e-05
-2.59838135546405e-05
-2.06661778414718e-05
-1.53485421134457e-05
-1.00309064002770e-05
-4.71327068710828e-06
6.04365040917758e-07
5.92200075408649e-06
6.03617046686584e-06
5.97091031720792e-06
5.90565016773234e-06
5.84039001825676e-06
5.77512986859884e-06
5.70986971912326e-06
5.64460956964767e-06
5.57934941998975e-06
5.51408927051417e-06
5.44882912103859e-06
5.38356897138067e-06
5.31830882190509e-06
5.25304867242950e-06
5.18778852277158e-06
5.12252837329600e-06
5.05726822382042e-06
4.99200807416250e-06
4.92674792468692e-06
4.86148777521133e-06
4.79622762555342e-06
4.73096747607783e-06
4.66570732660225e-06
4.60044717694433e-06
4.53518702746875e-06
4.38758983223992e-06
4.23715342811379e-06
4.08671702440798e-06
3.93628062070217e-06
3.78584421657604e-06
3.63540781287023e-06
3.48497140916442e-06
3.33453500503829e-06
3.18409860133248e-06
3.03366219762667e-06
2.88322579350054e-06
2.73278938979473e-06
2.58235298608891e-06
2.43191658196279e-06
2.28148017825698e-06
2.13104377455116e-06
1.98060737042504e-06
1.83017096671923e-06
1.67973456301341e-06
1.52929815888729e-06
1.37886175518147e-06
1.22842535147566e-06
1.07798894734954e-06
9.27552543643724e-07
7.61483274721807e-07
5.94874941016076e-07
4.28266607775844e-07
2.61658274535612e-07
9.50499408298816e-08
-7.15583924103505e-08
-2.38166725650583e-07
-4.04775059356313e-07
-5.71383392596545e-07
-7.37991725836777e-07
-9.04600059542508e-07
-1.07120839278274e-06
-1.23781672602297e-06
-1.40442505972870e-06
-1.57103339296893e-06
-1.73764172620917e-06
-1.90425005991490e-06
-2.07085839315513e-06
-2.23746672639536e-06
-2.40407506010109e-06
-2.57068339334132e-06
-2.73729172658156e-06
-2.90390006028729e-06
-3.07050839352752e-06
5.53145708804972e-06
1.44357872091002e-05
2.33401173052722e-05
3.22444474014443e-05
4.11487775224947e-05
5.00531076186668e-05
5.89574377148388e-05
6.78617678358893e-05
7.67660979320614e-05
8.56704280282334e-05
9.45747581492839e-05
0.000103479088245456
0.000112383418341628
0.000121287748462678
0.000130192078558851
0.000139096408655023
0.000148000738776073
0.000156905068872245
0.000165809398968417
0.000174713729089468
0.000183618059185640
0.000192522389281812
0.000201426719402862
0.000210331049499034
0.000217922240041463
0.000225444317996749
0.000232966395931018
0.000240488473865287
0.000248010551820572
0.000255532629754842
0.000263054707689111
0.000270576785644396
0.000278098863578665
0.000285620941512935
0.000293143019468220
0.000300665097402489
0.000308187175336759
0.000315709253292044
0.000323231331226313
0.000330753409160582
0.000338275487115868
0.000345797565050137
0.000353319642984406
0.000360841720939692
0.000368363798873961
0.000375885876808230
0.000383407954763516
0.000390930032697785
0.000375837731998588
0.000359555200798337
0.000343272669643579
0.000326990138488821
0.000310707607288570
0.000294425076133812
0.000278142544979054
0.000261860013778804
0.000245577482624046
0.000229294951469288
0.000213012420269037
0.000196729889114279
0.000180447357959521
0.000164164826759270
0.000147882295604512
0.000131599764449754
0.000115317233249503
9.90347020947454e-05
8.27521709399874e-05
6.64696397397366e-05
5.01871085849786e-05
3.39045774302207e-05
1.76220462299699e-05
1.33951507521190e-06
7.30259172712867e-07
9.45912495428850e-07
1.16156581754230e-06
1.37721913965576e-06
1.59287246237174e-06
1.80852578448519e-06
2.02417910659865e-06
2.23983242931463e-06
2.45548575142808e-06
2.88679239625752e-06
3.10244571837098e-06
3.31809904048443e-06
3.53375236320041e-06
3.74940568531387e-06
4.18071233014330e-06
4.39636565225676e-06
4.61201897437021e-06
4.82767229708619e-06
5.04332561919965e-06
5.25897894131310e-06
5.47463226402908e-06
5.69028558614254e-06
0.000294960996292444
0.000599445131937243
0.000903929266731323
0.00120841340152540
0.00151289753717020
0.00181738167196428
0.00212186580675836
0.00242634994240316
0.00273083407719724
0.00303531821199132
0.00333980234763612
0.00364428648243020
0.00394877061722428
0.00425325475286908
0.00455773888766316
0.00486222302245724
0.00516670715810204
0.00547119129289612
0.00577567542769020
0.00608015956333500
0.00638464369812908
0.00668912783292316
0.00699361196856796
0.00729809610336204
0.00702612855983181
0.00672382145341010
0.00642151434783303
0.00611920724225596
0.00581690013583425
0.00551459303025718
0.00521228592468011
0.00490997881825840
0.00460767171268133
0.00430536460710426
0.00400305750068255
0.00370075039510548
0.00339844328952840
0.00309613618310670
0.00279382907752962
0.00249152197195255
0.00218921486553085
0.00188690775995377
0.00158460065437670
0.00128229354795499
0.000979986442377923
0.000677679336800851
0.000375372230379143
7.30651248020717e-05
5.57821042235835e-05
5.35003512849435e-05
5.12185983526787e-05
4.89368454204138e-05
4.66550924817738e-05
4.43733395495090e-05
4.20915866172442e-05
3.98098336786042e-05
3.75280807463393e-05
3.52463278140744e-05
3.29645748754345e-05
3.06828219431696e-05
2.84010690109048e-05
2.61193160722648e-05
2.38375631399999e-05
2.15558102077351e-05
1.92740572690951e-05
1.69923043368302e-05
1.47105514045654e-05
1.24287984659254e-05
1.01470455336605e-05
7.86529260139566e-06
5.58353966275566e-06
3.30178673049081e-06
-9.48722097980184e-05
-0.000198093166809152
-0.000301314123531889
-0.000404535080254626
-0.000507756037265759
-0.000610976993988496
-0.000714197950711234
-0.000817418907722367
-0.000920639864445104
-0.00102386082116784
-0.00112708177817897
-0.00123030273490171
-0.00133352369162445
-0.00143674464863558
-0.00153996560535832
-0.00164318656208106
-0.00174640751909219
-0.00184962847581493
-0.00195284943253766
-0.00205607038954880
-0.00215929134627153
-0.00226251230299427
-0.00236573326000540
-0.00246895421672814
-0.00235515322387609
-0.00222993002279060
-0.00210470682205498
-0.00197948362131936
-0.00185426042023387
-0.00172903721949826
-0.00160381401876264
-0.00147859081767715
-0.00135336761694153
-0.00122814441620591
-0.00110292121512042
-0.000977698014384804
-0.000852474813649185
-0.000727251612563697
-0.000602028411828078
-0.000476805211092459
-0.000351582010006971
-0.000226358809271352
-0.000101135608535734
2.40875925497548e-05
0.000149310793285374
0.000274533994020992
0.000399757195106481
0.000524980395842099
0.000685946946296035
0.000848794726139352
0.00101164250552768
0.00117449028491600
0.00133733806475932
0.00150018584414764
0.00166303362353597
0.00182588140337929
0.00198872918276761
0.00215157696215594
0.00231442474199925
0.00247727252138758
0.00264012030077590
0.00280296808061922
0.00296581586000754
0.00312866363939587
0.00329151141923919
0.00345435919862751
0.00361720697801584
0.00378005475785915
0.00394290253724748
0.00410575031663580
0.00426859809647912
0.00443144587586745
0.00427738433634059
0.00410068641637493
0.00392398849690296
0.00374729057743098
0.00357059265746532
0.00339389473799335
0.00321719681852138
0.00304049889855571
0.00286380097908374
0.00268710305961177
0.00251040513964611
0.00233370722017413
0.00215700930070216
0.00198031138073650
0.00180361346126452
0.00162691554179255
0.00145021762182689
0.00127351970235492
0.00109682178288294
0.000920123862917282
0.000743425943445308
0.000566728023973335
0.000390030104007674
0.000213332184535700
0.000193848721486559
0.000185594862455773
0.000177341003448048
0.000169087144440324
0.000160833285409538
0.000152579426401814
0.000144325567394089
0.000136071708363304
0.000127817849355579
0.000119563990347855
0.000111310131317069
0.000103056272309345
9.48024133016203e-05
8.65485542708347e-05
7.82946952631102e-05
7.00408362553857e-05
6.17869772246002e-05
5.35331182168757e-05
4.52792592091512e-05
3.70254001783656e-05
2.87715411706411e-05
2.05176821629166e-05
1.22638231321311e-05
4.00996412440657e-06
3.31872255366536e-06
3.16766794282611e-06
3.01661333240890e-06
2.86555872199170e-06
2.71450411115245e-06
2.56344950073524e-06
2.41239489031803e-06
2.26134027947878e-06
2.11028566906157e-06
1.95923105864437e-06
1.80817644780512e-06
1.65712183738791e-06
1.50606722697070e-06
1.35501261613145e-06
1.20395800571424e-06
1.05290339529704e-06
9.01848784457788e-07
7.50794174040580e-07
5.99739563623372e-07
4.48684952784123e-07
2.97630342366915e-07
1.46575731949708e-07
-4.47887888954162e-09
-1.55533489306749e-07
-7.06437161369534e-06
-1.44559085816429e-05
-2.18474455289388e-05
-2.92389824762346e-05
-3.66305194441822e-05
-4.40220563914781e-05
-5.14135933387739e-05
-5.88051303067215e-05
-6.61966672540174e-05
-7.35882042013132e-05
-8.09797411692608e-05
-8.83712781165567e-05
-9.57628150638525e-05
-0.000103154352031800
-0.000110545888979096
-0.000117937425926392
-0.000125328962894339
-0.000132720499841635
-0.000140112036788931
-0.000147503573756879
-0.000154895110704175
-0.000162286647651470
-0.000169678184619418
-0.000177069721566714
-0.000173030214360034
-0.000168174203985117
-0.000163318193623768
-0.000158462183262419
-0.000153606172887502
-0.000148750162526153
-0.000143894152164804
-0.000139038141789888
-0.000134182131428539
-0.000129326121067190
-0.000124470110692273
-0.000119614100330924
-0.000114758089969575
-0.000109902079594659
-0.000105046069233310
-0.000100190058871961
-9.53340484970443e-05
-9.04780381356954e-05
-8.56220277743463e-05
-8.07660173994298e-05
-7.59100070380808e-05
-7.10539966767318e-05
-6.61979863018153e-05
-6.13419759404663e-05
-5.86796842168119e-05
-5.61740866747198e-05
-5.36684891396283e-05
-5.11628916045368e-05
-4.86572940624447e-05
-4.61516965273531e-05
-4.36460989922616e-05
-4.11405014501695e-05
-3.86349039150780e-05
-3.61293063799865e-05
-3.36237088378944e-05
-3.11181113028028e-05
-2.86125137677113e-05
-2.61069162256192e-05
-2.36013186905277e-05
-2.10957211554361e-05
-1.85901236133440e-05
-1.60845260782525e-05
-1.35789285431610e-05
-1.10733310010689e-05
-8.56773346597735e-06
-6.06213593088582e-06
-3.55653838879372e-06
-1.05094085370219e-06
-5.82553371553706e-07
-2.99366802706038e-07
-1.61802346495852e-08
2.67006333406868e-07
5.50192902254536e-07
8.33379470310989e-07
1.11656603836744e-06
1.39975260721511e-06
1.68293917527156e-06
1.96612574332802e-06
2.24931231217568e-06
2.53249888023214e-06
2.81568544828859e-06
3.09887201713626e-06
3.38205858519271e-06
3.66524515324916e-06
3.94843172209683e-06
4.23161829015329e-06
4.51480485820974e-06
4.79799142705741e-06
5.08117799511386e-06
5.36436456317031e-06
5.64755113201798e-06
5.93073770007443e-06
-6.21101259460153e-06
-1.94823026422982e-05
-3.27535926529154e-05
-4.60248826635325e-05
-5.92961727112292e-05
-7.25674627218464e-05
-8.58387527324635e-05
-9.91100427801602e-05
-0.000112381332790777
-0.000125652622801395
-0.000138923912849091
-0.000152195202859708
-0.000165466492870325
-0.000178737782918022
-0.000192009072928639
-0.000205280362939256
-0.000218551652986953
-0.000231822942997570
-0.000245094233008187
-0.000258365523055884
-0.000271636813066501
-0.000284908103077118
-0.000298179393124815
-0.000311450683135432
-0.000300718862868431
-0.000287804941628804
-0.000274891020425258
-0.000261977099221712
-0.000249063177982085
-0.000236149256778539
-0.000223235335574992
-0.000210321414335365
-0.000197407493131819
-0.000184493571928273
-0.000171579650688646
-0.000158665729485099
-0.000145751808281553
-0.000132837887041926
-0.000119923965838380
-0.000107010044634834
-9.40961233952064e-05
-8.11822021916602e-05
-6.82682809881141e-05
-5.53543597484868e-05
-4.24404385449406e-05
-2.95265173413945e-05
-1.66125961017672e-05
-3.69867489822107e-06
-2.54743404584614e-06
-2.46552777170775e-06
-2.38362149779819e-06
-2.30171522388864e-06
-2.21980894975024e-06
-2.13790267584069e-06
-2.05599640193114e-06
-1.97409012779274e-06
-1.89218385388319e-06
-1.81027757997364e-06
-1.72837130583524e-06
-1.64646503192569e-06
-1.56455875801614e-06
-1.48265248387774e-06
-1.40074620996819e-06
-1.31883993605863e-06
-1.23693366192024e-06
-1.15502738801069e-06
-1.07312111410113e-06
-9.91214839962736e-07
-9.09308566053184e-07
-8.27402292143631e-07
-7.45496018005235e-07
-6.63589744095682e-07
-3.49982301598933e-07
-1.53111155468932e-08
3.19360069570087e-07
6.54031254687066e-07
9.88702440739106e-07
1.32337362585609e-06
1.65804481097307e-06
1.99271599702511e-06
2.32738718214209e-06
2.66205836725906e-06
2.99672955331111e-06
3.33140073842809e-06
3.66607192354507e-06
4.00074310959711e-06
4.33541429471408e-06
4.67008547983107e-06
5.00475666588310e-06
5.33942785100008e-06
5.67409903611706e-06
6.00877022216910e-06
6.34344140728608e-06
6.67811259240306e-06
7.01278377845510e-06
7.34745496357208e-06
7.09181661494518e-06
6.78251376233196e-06
6.47321091058293e-06
6.16390805883389e-06
5.85460520622067e-06
5.54530235447164e-06
5.23599950272260e-06
4.92669665010938e-06
4.61739379836034e-06
4.30809094661131e-06
3.99878809399809e-06
3.68948524224905e-06
3.38018239050002e-06
3.07087953788680e-06
2.76157668613776e-06
2.45227383438872e-06
2.14297098177551e-06
1.83366813002647e-06
1.52436527827743e-06
1.21506242566421e-06
9.05759573915177e-07
5.96456722166141e-07
2.87153869552923e-07
-2.21489821961142e-08
-6.92269969808821e-07
-1.40248186343221e-06
-2.82290564671037e-06
-3.53311754033376e-06
-4.24332943197284e-06
-4.95354132361192e-06
-5.66375321723531e-06
-6.37396510887439e-06
-7.08417700051347e-06
-7.79438889413686e-06
-8.50460078577594e-06
-9.21481267741502e-06
-9.92502457103841e-06
-1.06352364626775e-05
-1.13454483543166e-05
-1.20556602479400e-05
-1.27658721395790e-05
-1.34760840312181e-05
-1.41862959248415e-05
-1.48965078164806e-05
-1.56067197081197e-05
-1.63169316017431e-05
-1.70271434933821e-05
-2.51376819156575e-05
-3.40704788671465e-05
-4.30032757936775e-05
-5.19360727202086e-05
-6.08688696716975e-05
-6.98016665982286e-05
-7.87344635247596e-05
-8.76672604762486e-05
-9.66000574027796e-05
-0.000105532854329311
-0.000114465651280800
-0.000123398448207331
-0.000132331245133862
-0.000141264042085351
-0.000150196839011882
-0.000159129635938413
-0.000168062432889902
-0.000176995229816433
-0.000185928026742964
-0.000194860823694453
-0.000203793620620984
-0.000212726417547515
-0.000221659214499004
-0.000230592011425535
-0.000255368645923217
-0.000281905706893661
-0.000308442767789962
-0.000334979828686262
-0.000361516889656706
-0.000388053950553007
-0.000414591011449307
-0.000441128072419751
-0.000467665133316052
-0.000494202194212352
-0.000520739255182796
-0.000547276316079097
-0.000573813376975397
-0.000600350437945841
-0.000626887498842141
-0.000653424559738442
-0.000679961620708886
-0.000706498681605186
-0.000733035742501487
-0.000759572803471931
-0.000786109864368231
-0.000812646925264531
-0.000839183986234976
-0.000865721047131276
-0.000831845790349928
-0.000791258053706267
-0.000750670317176006
-0.000710082580645745
-0.000669494844002084
-0.000628907107471823
-0.000588319370941563
-0.000547731634297901
-0.000507143897767640
-0.000466556161237380
-0.000425968424593718
-0.000385380688063458
-0.000344792951533197
-0.000304205214889536
-0.000263617478359275
-0.000223029741829014
-0.000182442005185353
-0.000141854268655092
-0.000101266532124831
-6.06787954811699e-05
-2.00910589509092e-05
2.04966775793515e-05
6.10844142230130e-05
0.000101672150753274
0.000102287408976760
9.84612807064254e-05
9.46351524467811e-05
9.08090241871368e-05
8.69828959168024e-05
8.31567676571581e-05
7.93306393975138e-05
7.55045111271794e-05
7.16783828675352e-05
6.78522546078909e-05
6.40261263375565e-05
6.01999980779122e-05
5.63738698182679e-05
5.25477415479335e-05
4.87216132882893e-05
4.48954850286450e-05
4.10693567583106e-05
3.72432284986663e-05
3.34171002390220e-05
2.95909719686876e-05
2.57648437090433e-05
2.19387154493990e-05
1.81125871790647e-05
1.42864589194204e-05
1.33596101266570e-05
1.28156850359506e-05
1.22717599467640e-05
1.17278348575773e-05
1.11839097668709e-05
1.06399846776842e-05
1.00960595884976e-05
9.55213449779118e-06
9.00820940860451e-06
8.46428431941784e-06
7.92035922871146e-06
7.37643413952479e-06
6.83250905033812e-06
6.28858395963174e-06
5.74465887044507e-06
5.20073378125840e-06
4.65680869055202e-06
4.11288360136535e-06
3.56895851217867e-06
3.02503342147229e-06
2.48110833228562e-06
1.93718324309895e-06
1.39325815239257e-06
8.49333063205899e-07
1.97516957945252e-07
-4.68548906031346e-07
-1.13461476814698e-06
-1.80068063026261e-06
-2.46674649423921e-06
-3.13281235635484e-06
-3.79887821847047e-06
-4.46494408244707e-06
-5.13100994456270e-06
-5.79707580667833e-06
-6.46314167065493e-06
-7.12920753277056e-06
-7.79527339488619e-06
-8.46133925886279e-06
-9.12740512097842e-06
-9.79347098309405e-06
-1.04595368470706e-05
-1.11256027091863e-05
-1.17916685713019e-05
-1.24577344352785e-05
-1.31238002973941e-05
-1.37898661595098e-05
-1.44559320234864e-05
-1.51219978856020e-05
-1.26397064559532e-05
-9.74159424338478e-06
-6.84348203891357e-06
-3.94536983444237e-06
-1.04725762187393e-06
1.85085458259727e-06
4.74896678706848e-06
7.64707899963691e-06
1.05451912041081e-05
1.34433034085793e-05
1.63414156211478e-05
1.92395278256190e-05
2.21376400300902e-05
2.50357522426586e-05
2.79338644471298e-05
3.08319766516010e-05
3.37300888641694e-05
3.66282010686407e-05
3.95263132731119e-05
4.24244254856803e-05
4.53225376901515e-05
4.82206498946227e-05
5.11187621071911e-05
5.40168743116623e-05
5.31083403436759e-05
5.16970417824011e-05
5.02857432250694e-05
4.88744446677377e-05
4.74631461064629e-05
4.60518475491312e-05
4.46405489917995e-05
4.32292504305247e-05
4.18179518731930e-05
4.04066533158613e-05
3.89953547545865e-05
3.75840561972548e-05
3.61727576399231e-05
3.47614590786483e-05
3.33501605213166e-05
3.19388619639849e-05
3.05275634027101e-05
2.91162648453784e-05
2.77049662880467e-05
2.62936677267719e-05
2.48823691694402e-05
2.34710706121085e-05
2.20597720508337e-05
2.06484734935020e-05
2.00131088649067e-05
1.94802260745751e-05
1.89473432857323e-05
1.84144604968894e-05
1.78815777065578e-05
1.73486949177150e-05
1.68158121288722e-05
1.62829293385405e-05
1.57500465496977e-05
1.52171637608549e-05
1.46842809705233e-05
1.41513981816804e-05
1.36185153928376e-05
1.30856326025060e-05
1.25527498136632e-05
1.20198670248204e-05
1.14869842344887e-05
1.09541014456459e-05
1.04212186568031e-05
9.88833586647145e-06
9.35545307762865e-06
8.82257028878584e-06
8.28968749845418e-06
7.75680470961138e-06
7.48010913466861e-06
7.23724960620185e-06
6.99439007841364e-06
6.75153055062542e-06
6.50867102215866e-06
6.26581149437044e-06
6.02295196658223e-06
5.78009243811547e-06
5.53723291032725e-06
5.29437338253903e-06
5.05151385407227e-06
4.80865432628406e-06
4.56579479849584e-06
4.32293527002908e-06
4.08007574224086e-06
3.83721621445264e-06
3.59435668598589e-06
3.35149715819767e-06
3.10863763040945e-06
2.86577810194269e-06
2.62291857415447e-06
2.38005904636626e-06
2.13719951789950e-06
1.89433999011128e-06
1.79147382846008e-06
1.71014510754896e-06
1.62881638686508e-06
1.54748766618119e-06
1.46615894527008e-06
1.38483022458619e-06
1.30350150390231e-06
1.22217278299119e-06
1.14084406230731e-06
1.05951534162342e-06
9.78186620712306e-07
8.96857900028421e-07
8.15529179344536e-07
7.34200458433422e-07
6.52871737749537e-07
5.71543017065651e-07
4.90214296154537e-07
4.08885575470652e-07
3.27556854786767e-07
2.46228133875652e-07
1.64899413191767e-07
8.35706925078817e-08
2.24197159676689e-09
-7.90867490871181e-08
-1.01657976448578e-07
-1.15189589480827e-07
-1.28721202475268e-07
-1.42252815469710e-07
-1.55784428501958e-07
-1.69316041496400e-07
-1.82847654490841e-07
-1.96379267523089e-07
-2.09910880517531e-07
-2.23442493511972e-07
-2.36974106544221e-07
-2.50505719538662e-07
-2.64037332533104e-07
-2.77568945565352e-07
-2.91100558559794e-07
-3.04632171554235e-07
-3.18163784586484e-07
-3.31695397580925e-07
-3.45227010575367e-07
-3.58758623607615e-07
-3.72290236602057e-07
-3.85821849596498e-07
-3.99353462628747e-07
-4.12885075623188e-07
-1.06257323973197e-07
2.49625715592469e-07
6.05508754163809e-07
9.61391792735150e-07
1.31727483230082e-06
1.67315787087216e-06
2.02904090944350e-06
2.38492394900916e-06
2.74080698758050e-06
3.09669002615184e-06
3.45257306571751e-06
3.80845610428885e-06
4.16433914286019e-06
4.52022218242586e-06
4.87610522099720e-06
5.23198825956854e-06
5.58787129913420e-06
5.94375433770554e-06
6.29963737627689e-06
6.65552041584255e-06
7.01140345441389e-06
7.36728649298523e-06
7.72316953255090e-06
8.07905257112224e-06
7.61750917222436e-06
7.03020785809352e-06
6.44290654560358e-06
5.85560523311364e-06
5.26830391898281e-06
4.68100260649287e-06
4.09370129400293e-06
3.50639997987209e-06
2.91909866738215e-06
2.33179735489221e-06
1.74449604076138e-06
1.15719472827144e-06
5.69893415781500e-07
-1.74078983493394e-08
-6.04709210839278e-07
-1.19201052332922e-06
-1.77931183746005e-06
-2.36661314994999e-06
-2.95391446243993e-06
-3.54121577657077e-06
-4.12851708906071e-06
-4.71581840155065e-06
-5.30311971568148e-06
-5.89042102817142e-06
-6.38657875181142e-06
-6.86871438619110e-06
-7.35085001922371e-06
-7.83298565225633e-06
-8.31512128663601e-06
-8.79725691966863e-06
-9.27939255270124e-06
-9.76152818708092e-06
-1.02436638201135e-05
-1.07257994531461e-05
-1.12079350875258e-05
-1.16900707205584e-05
-1.21722063535911e-05
-1.26543419879707e-05
-1.31364776210034e-05
-1.36186132540360e-05
-1.41007488884157e-05
-1.45828845214483e-05
-1.50650201544809e-05
-1.55471557888606e-05
-1.60292914218932e-05
-1.65114270549258e-05
-1.69935626893055e-05
-1.74756983223381e-05
-1.69022806715503e-05
-1.61664702056365e-05
-1.54306597417786e-05
-1.46948492779207e-05
-1.39590388120069e-05
-1.32232283481490e-05
-1.24874178842911e-05
-1.17516074183773e-05
-1.10157969545194e-05
-1.02799864906615e-05
-9.54417602474775e-06
-8.80836556088983e-06
-8.07255509703191e-06
-7.33674463111816e-06
-6.60093416726023e-06
-5.86512370340231e-06
-5.12931323748856e-06
-4.39350277363064e-06
-3.65769230977272e-06
-2.92188184385897e-06
-2.18607138000105e-06
-1.45026091614313e-06
-7.14450450229377e-07
2.13600136285432e-08
3.56121925648113e-07
6.20110564473869e-07
8.84099202562049e-07
1.14808784065023e-06
1.41207647947598e-06
1.67606511756416e-06
1.94005375565235e-06
2.20404239447810e-06
2.46803103256628e-06
2.73201967065446e-06
2.99600830948022e-06
3.25999694756840e-06
3.52398558565658e-06
3.78797422448233e-06
4.05196286257051e-06
4.31595150065869e-06
4.57994013948445e-06
4.84392877757263e-06
5.10791741566081e-06
5.37190605448656e-06
5.63589469257474e-06
5.89988333066292e-06
6.16387196948868e-06
6.42786060757686e-06
-4.16935378389650e-05
-9.83535341739879e-05
-0.000155013530350705
-0.000211673526527421
-0.000268333522862444
-0.000324993519039161
-0.000381653515215878
-0.000438313511550900
-0.000494973507727617
-0.000551633503904334
-0.000608293500239357
-0.000664953496416073
-0.000721613492592790
-0.000778273488927813
-0.000834933485104530
-0.000891593481281246
-0.000948253477616269
-0.00100491347379299
-0.00106157346996970
-0.00111823346630473
-0.00117489346248144
-0.00123155345865816
-0.00128821345499318
-0.00134487345116990
-0.00133637237728855
-0.00131637229097553
-0.00129637220471838
-0.00127637211846124
-0.00125637203214822
-0.00123637194589108
-0.00121637185963393
-0.00119637177332091
-0.00117637168706377
-0.00115637160080663
-0.00113637151449361
-0.00111637142823646
-0.00109637134197932
-0.00107637125566630
-0.00105637116940916
-0.00103637108315201
-0.00101637099683899
-0.000996370910581851
-0.000976370824324708
-0.000956370738011686
-0.000936370651754544
-0.000916370565497402
-0.000896370479184380
-0.000876370392927238
-0.000875340006882530
-0.000877657215003097
-0.000879974423117190
-0.000882291631231283
-0.000884608839351850
-0.000886926047465942
-0.000889243255580035
-0.000891560463700602
-0.000893877671814695
-0.000896194879928788
-0.000898512088049354
-0.000900829296163447
-0.000903146504277540
-0.000905463712398107
-0.000907780920512200
-0.000910098128626292
-0.000912415336746859
-0.000914732544860952
-0.000917049752975045
-0.000919366961095612
-0.000921684169209704
-0.000924001377323797
-0.000926318585444364
-0.000928635793558457
-0.000897799284716038
-0.000861112119831210
-0.000824424955048885
-0.000787737790266560
-0.000751050625381732
-0.000714363460599407
-0.000677676295817081
-0.000640989130932253
-0.000604301966149928
-0.000567614801367603
-0.000530927636482775
-0.000494240471700450
-0.000457553306918125
-0.000420866142033297
-0.000384178977250972
-0.000347491812468647
-0.000310804647583819
-0.000274117482801494
-0.000237430318019169
-0.000200743153134341
-0.000164055988352016
-0.000127368823569691
-9.06816586848628e-05
-5.39944939025377e-05
-4.62534012799294e-05
-4.43015230902794e-05
-4.23496449060828e-05
-4.03977667218863e-05
-3.84458885322362e-05
-3.64940103480397e-05
-3.45421321638432e-05
-3.25902539741931e-05
-3.06383757899966e-05
-2.86864976058000e-05
-2.67346194161500e-05
-2.47827412319535e-05
-2.28308630477569e-05
-2.08789848581069e-05
-1.89271066739104e-05
-1.69752284897138e-05
-1.50233503000638e-05
-1.30714721158672e-05
-1.11195939316707e-05
-9.16771574202068e-06
-7.21583755782414e-06
-5.26395937362759e-06
-3.31208118397757e-06
-1.36020299978102e-06
4.15814799841967e-06
1.03897935776292e-05
1.66214391394277e-05
2.28530847012262e-05
2.90847302804357e-05
3.53163758422342e-05
4.15480214040327e-05
4.77796669832422e-05
5.40113125450407e-05
6.02429581068392e-05
6.64746036860487e-05
7.27062492478472e-05
7.89378948096457e-05
8.51695403888552e-05
9.14011859506537e-05
9.76328315124523e-05
0.000103864477091662
0.000110096122653460
0.000116327768215259
0.000122559413794468
0.000128791059356267
0.000135022704918065
0.000141254350497275
0.000147485996059073
0.000140631426920624
0.000131159614812737
0.000121687802731313
0.000112215990649890
0.000102744178542002
9.32723664605790e-05
8.38005543791557e-05
7.43287422712684e-05
6.48569301898450e-05
5.53851181084216e-05
4.59133060005343e-05
3.64414939191109e-05
2.69696818376875e-05
1.74978697298002e-05
8.02605764837686e-06
-1.44575443304652e-06
-1.09175665409338e-05
-2.03893786223572e-05
-2.98611907037806e-05
-3.93330028116679e-05
-4.88048148930913e-05
-5.82766269745146e-05
-6.77484390824020e-05
-7.72202511638253e-05
-0.000164419776386474
-0.000267164844541803
-0.000369909912410066
-0.000472654980278329
-0.000575400048433658
-0.000678145116301921
-0.000780890184170184
-0.000883635252325513
-0.000986380320193776
-0.00108912538806204
-0.00119187045621737
-0.00129461552408563
-0.00139736059195389
-0.00150010566010922
-0.00160285072797749
-0.00170559579584575
-0.00180834086400108
-0.00191108593186934
-0.00201383099973760
-0.00211657606789293
-0.00221932113576120
-0.00232206620362946
-0.00242481127178479
-0.00252755633965305
-0.00345565579895188
-0.00454882613977554
-0.00564199647754492
-0.00673516681531429
-0.00782833715613795
-0.00892150749390733
-0.0100146778316767
-0.0111078481725004
-0.0122010185102697
-0.0132941888480391
-0.0143873591888628
-0.0154805295266322
-0.0165736998644015
-0.0176668702052252
-0.0187600405429946
-0.0198532108807640
-0.0209463812215876
-0.0220395515593570
-0.0231327218971264
-0.0242258922379500
-0.0253190625757194
-0.0264122329134888
-0.0275054032543124
-0.0285985735920818
-0.0283150284792241
-0.0277561402743719
-0.0271972520710811
-0.0266383638677904
-0.0260794756629381
-0.0255205874596474
-0.0249616992563567
-0.0244028110515044
-0.0238439228482137
-0.0232850346449229
-0.0227261464400707
-0.0221672582367799
-0.0216083700334892
-0.0210494818286369
-0.0204905936253462
-0.0199317054220555
-0.0193728172172032
-0.0188139290139125
-0.0182550408106217
-0.0176961526057695
-0.0171372644024787
-0.0165783761991880
-0.0160194879943357
-0.0154605997910450
-0.0148561285853508
-0.0142414244590205
-0.0136267203344078
-0.0130120162097950
-0.0123973120834648
-0.0117826079588520
-0.0111679038342392
-0.0105531997079090
-0.00993849558329624
-0.00932379145868348
-0.00870908733235325
-0.00809438320774048
-0.00747967908312771
-0.00686497495679748
-0.00625027083218472
-0.00563556670757195
-0.00502086258124172
-0.00440615845662895
-0.00379145433201619
-0.00317675020568596
-0.00256204608107319
-0.00194734195646042
-0.00133263783013019
-0.000717933705517427
-0.000585156674256785
-0.000560567357884765
-0.000535978041581448
-0.000511388725278130
-0.000486799408906110
-0.000462210092602792
-0.000437620776299474
-0.000413031459927455
-0.000388442143624137
-0.000363852827320819
-0.000339263510948799
-0.000314674194645481
-0.000290084878342164
-0.000265495561970144
-0.000240906245666826
-0.000216316929363508
-0.000191727612991489
-0.000167138296688171
-0.000142548980384853
-0.000117959664012833
-9.33703477095154e-05
-6.87810314061975e-05
-4.41917150341779e-05
-1.96023987308600e-05
-1.47170734917720e-05
-1.42550931892155e-05
-1.37931128879498e-05
-1.33311325866842e-05
-1.28691522841277e-05
-1.24071719828620e-05
-1.19451916815963e-05
-1.14832113790399e-05
-1.10212310777742e-05
-1.05592507765085e-05
-1.00972704739521e-05
-9.63529017268642e-06
-9.17330987142073e-06
-8.71132956886429e-06
-8.24934926759861e-06
-7.78736896633292e-06
-7.32538866377648e-06
-6.86340836251080e-06
-6.40142806124512e-06
-5.93944775868868e-06
-5.47746745742299e-06
-5.01548715615731e-06
-4.55350685360087e-06
-4.09152655233519e-06
-1.89170471962801e-05
-3.71744558624351e-05
-5.54318644775795e-05
-7.36892730927240e-05
-9.19466817588790e-05
-0.000110204090374023
-0.000128461498989168
-0.000146718907655323
-0.000164976316270467
-0.000183233724885612
-0.000201491133551767
-0.000219748542166911
-0.000238005950782055
-0.000256263359448210
-0.000274520768063355
-0.000292778176678499
-0.000311035585344654
-0.000329292993959799
-0.000347550402574943
-0.000365807811241098
-0.000384065219856243
-0.000402322628471387
-0.000420580037137542
-0.000438837445752686
-0.000432912351163839
-0.000421558531328030
-0.000410204711523943
-0.000398850891719856
-0.000387497071884046
-0.000376143252079959
-0.000364789432275872
-0.000353435612440063
-0.000342081792635976
-0.000330727972831888
-0.000319374152996079
-0.000308020333191992
-0.000296666513387905
-0.000285312693552096
-0.000273958873748008
-0.000262605053943921
-0.000251251234108112
-0.000239897414304025
-0.000228543594499938
-0.000217189774664128
-0.000205835954860041
-0.000194482135055954
-0.000183128315220145
-0.000171774495416058
-0.000136221062348528
-9.52350629174867e-05
-5.42490636009587e-05
-1.32630642844306e-05
2.77229351466109e-05
6.87089344631390e-05
0.000109694933779667
0.000150680933210709
0.000191666932527237
0.000232652931843765
0.000273638931274806
0.000314624930591334
0.000355610929907862
0.000396596929338904
0.000437582928655432
0.000478568927971960
0.000519554927403001
0.000560540926719529
0.000601526926036057
0.000642512925467099
0.000683498924783627
0.000724484924100155
0.000765470923531197
0.000806456922847724
0.000814869343105631
0.000815138368590144
0.000815407394073906
0.000815676419557668
0.000815945445042182
0.000816214470525944
0.000816483496009707
0.000816752521494220
0.000817021546977983
0.000817290572461745
0.000817559597946258
0.000817828623430020
0.000818097648913783
0.000818366674398296
0.000818635699882059
0.000818904725365821
0.000819173750850334
0.000819442776334097
0.000819711801817859
0.000819980827302372
0.000820249852786135
0.000820518878269897
0.000820787903754411
0.000821056929238173
0.000793870915811808
0.000759821142554781
0.000725771369392888
0.000691721596230994
0.000657671822973967
0.000623622049812074
0.000589572276650180
0.000555522503393153
0.000521472730231260
0.000487422957069366
0.000453373183812339
0.000419323410650446
0.000385273637488552
0.000351223864231525
0.000317174091069632
0.000283124317907739
0.000249074544650711
0.000215024771488818
0.000180974998326925
0.000146925225069897
0.000112875451908004
7.88256787461106e-05
4.47759054890833e-05
1.07261323271900e-05
1.35929967508280e-05
2.56890206153981e-05
3.77850444461723e-05
4.98810682769465e-05
6.19770921415166e-05
7.40731159722908e-05
8.61691398030650e-05
9.82651636676351e-05
0.000110361187498409
0.000122457211329184
0.000134553235193754
0.000146649259024528
0.000158745282855302
0.000170841306719872
0.000182937330550646
0.000195033354381421
0.000207129378245991
0.000219225402076765
0.000231321425907539
0.000243417449772109
0.000255513473602883
0.000267609497433658
0.000279705521298228
0.000291801545129002
0.000374785794425416
0.000475492100390260
0.000576198406073733
0.000676904711757207
0.000777611017722051
0.000878317323405524
0.000979023629088998
0.00107972993505384
0.00118043624073731
0.00128114254642079
0.00138184885238563
0.00148255515806911
0.00158326146375258
0.00168396776971742
0.00178467407540090
0.00188538038108437
0.00198608668704921
0.00208679299273269
0.00218749929841616
0.00228820560438100
0.00238891191006448
0.00248961821574795
0.00259032452171279
0.00269103082739627
0.00276854329491801
0.00284025730309293
0.00291197131106748
0.00298368531904203
0.00305539932721695
0.00312711333519150
0.00319882734316605
0.00327054135134097
0.00334225535931552
0.00341396936729007
0.00348568337546499
0.00355739738343954
0.00362911139141409
0.00370082539958901
0.00377253940756356
0.00384425341553811
0.00391596742371303
0.00398768143168758
0.00405939543966213
0.00413110944783705
0.00420282345581160
0.00427453746378616
0.00434625147196107
0.00441796547993563
0.00433621294859580
0.00421201222513318
0.00408781150201757
0.00396361077890196
0.00383941005543934
0.00371520933232373
0.00359100860920813
0.00346680788574550
0.00334260716262990
0.00321840643951429
0.00309420571605167
0.00297000499293606
0.00284580426982045
0.00272160354635783
0.00259740282324222
0.00247320210012661
0.00234900137666399
0.00222480065354838
0.00210059993043277
0.00197639920697015
0.00185219848385454
0.00172799776073893
0.00160379703727631
0.00147959631416070
0.00145055736383426
0.00144783975494132
0.00144512214605597
0.00144240453717063
0.00143968692827769
0.00143696931939234
0.00143425171050700
0.00143153410161406
0.00142881649272871
0.00142609888384336
0.00142338127495043
0.00142066366606508
0.00141794605717973
0.00141522844828680
0.00141251083940145
0.00140979323051610
0.00140707562162316
0.00140435801273782
0.00140164040385247
0.00139892279495953
0.00139620518607419
0.00139348757718884
0.00139076996829590
0.00138805235941056
0.00167207965288471
0.00203541936726999
0.00239875908064012
0.00276209879401024
0.00312543850839553
0.00348877822176566
0.00385211793513578
0.00421545764952107
0.00457879736289119
0.00494213707626132
0.00530547679064661
0.00566881650401673
0.00603215621738686
0.00639549593177215
0.00675883564514227
0.00712217535851240
0.00748551507289768
0.00784885478626781
0.00821219449963794
0.00857553421402322
0.00893887392739335
0.00930221364076348
0.00966555335514876
0.0100288930685189
0.00957834484057467
0.00890267866926006
0.00822701249983324
0.00755134633040642
0.00687568015909182
0.00620001398966500
0.00552434782023818
0.00484868164892357
0.00417301547949676
0.00349734931006994
0.00282168313875533
0.00214601696932851
0.00147035079990170
0.000794684628587089
0.000119018459160271
-0.000556647710266547
-0.00123231388158115
-0.00190798005100797
-0.00258364622043479
-0.00325931239174940
-0.00393497856117621
-0.00461064473060303
-0.00528631090191764
-0.00596197707134446
-0.00598104691493198
-0.00581850500814895
-0.00565596310182005
-0.00549342119549115
-0.00533087928870811
-0.00516833738237921
-0.00500579547605031
-0.00484325356926727
-0.00468071166293837
-0.00451816975660947
-0.00435562784982643
-0.00419308594349753
-0.00403054403716863
-0.00386800213038560
-0.00370546022405670
-0.00354291831772779
-0.00338037641094476
-0.00321783450461586
-0.00305529259828696
-0.00289275069150392
-0.00273020878517502
-0.00256766687884612
-0.00240512497206308
-0.00224258306573418
-0.00214785615108053
-0.00207188657435990
-0.00199591699785153
-0.00191994742134315
-0.00184397784462252
-0.00176800826811414
-0.00169203869160577
-0.00161606911488513
-0.00154009953837676
-0.00146412996186838
-0.00138816038514775
-0.00131219080863937
-0.00123622123213100
-0.00116025165541037
-0.00108428207890199
-0.00100831250239362
-0.000932342925672983
-0.000856373349164607
-0.000780403772656231
-0.000704434195935599
-0.000628464619427224
-0.000552495042918848
-0.000476525466198216
-0.000400555889689840
-0.000373333680364456
-0.000360947626252095
-0.000348561572174341
-0.000336175518096587
-0.000323789463984226
-0.000311403409906472
-0.000299017355828718
-0.000286631301716357
-0.000274245247638603
-0.000261859193560849
-0.000249473139448488
-0.000237087085370734
-0.000224701031292980
-0.000212314977180619
-0.000199928923102865
-0.000187542869025111
-0.000175156814912750
-0.000162770760834996
-0.000150384706757242
-0.000137998652644881
-0.000125612598567127
-0.000113226544489373
-0.000100840490377012
-8.84544362992583e-05
-7.97293566427955e-05
-7.21184865729017e-05
-6.45076165242726e-05
-5.68967464756434e-05
-4.92858764057497e-05
-4.16750063571205e-05
-3.40641363084913e-05
-2.64532662385976e-05
-1.88423961899684e-05
-1.12315261413392e-05
-3.62065607144546e-06
3.99021397718374e-06
1.16010840258129e-05
1.92119540957066e-05
2.68228241443358e-05
3.44336941929650e-05
4.20445642628587e-05
4.96554343114879e-05
5.72663043601171e-05
6.48771744300108e-05
7.24880444786400e-05
8.00989145272692e-05
8.77097845971629e-05
9.53206546457921e-05
9.43880629651196e-05
9.08552872668476e-05
8.73225115784461e-05
8.37897358900446e-05
8.02569601917726e-05
7.67241845033711e-05
7.31914088149696e-05
6.96586331166976e-05
6.61258574282961e-05
6.25930817398946e-05
5.90603060416227e-05
5.55275303532211e-05
5.19947546648196e-05
4.84619789665477e-05
4.49292032781462e-05
4.13964275897447e-05
3.78636518914727e-05
3.43308762030712e-05
3.07981005146697e-05
2.72653248163977e-05
2.37325491279962e-05
2.01997734395947e-05
1.66669977413227e-05
1.31342220529212e-05
2.01365823210063e-05
3.03452883473966e-05
4.05539943452641e-05
5.07627003431316e-05
6.09714063695218e-05
7.11801123673893e-05
8.13888183652568e-05
9.15975243916471e-05
0.000101806230389515
0.000112014936387382
0.000122223642413772
0.000132432348411640
0.000142641054409507
0.000513895867418371
0.000530169251097625
0.000546442634731412
0.000562716018365199
0.000578989402044453
0.000595262785678240
0.000611536169312028
0.000627809552991282
0.000644082936625069
0.000645493274421257
0.000642380076513547
0.000639266878614536
0.000636153680715524
0.000633040482807814
0.000629927284908803
0.000626814087009791
0.000623700889102081
0.000620587691203070
0.000617474493304058
0.000614361295396349
0.000611248097497337
0.000608134899598325
0.000605021701690616
0.000601908503791604
0.000598795305892593
0.000595682107984883
0.000592568910085871
0.000589455712186860
0.000586342514279150
0.000583229316380138
0.000580116118481127
0.000577002920573417
0.000573889722674406
0.000563567738342800
0.000550842825161792
0.000538117912016336
0.000525392998870881
0.000512668085689872
0.000499943172544417
0.000487218259398961
0.000474493346217953
0.000461768433072497
0.000449043519927042
0.000436318606746033
0.000423593693600578
0.000410868780455122
0.000398143867274114
0.000385418954128658
0.000372694040983203
0.000359969127802194
0.000347244214656739
0.000334519301511283
0.000321794388330275
0.000309069475184820
0.000296344562039364
0.000283619648858356
0.000270894735712900
0.000265175927459800
0.000261792487497600
0.000258409047544853
0.000255025607592106
0.000251642167629906
0.000248258727677159
0.000244875287724412
0.000241491847762212
0.000238108407809465
0.000234724967856718
0.000231341527894518
0.000227958087941771
0.000224574647989024
0.000221191208026824
0.000217807768074077
0.000214424328121330
0.000211040888159130
0.000207657448206383
0.000204274008253636
0.000200890568291436
0.000197507128338689
0.000194123688385942
0.000190740248423742
0.000187356808470995
0.000180920566837682
0.000173466724622090
0.000166012882427323
0.000158559040232557
0.000151105198016965
0.000143651355822198
0.000136197513627432
0.000128743671411840
0.000121289829217073
0.000113835987022307
0.000106382144806714
9.89283026119480e-05
9.14744604171816e-05
8.40206182015893e-05
7.65667760068229e-05
6.91129338120565e-05
6.16590915964643e-05
5.42052494016978e-05
4.67514072069314e-05
3.92975649913392e-05
3.18437227965727e-05
2.43898806018063e-05
1.69360383862141e-05
9.48219619144765e-06
1.01991423927070e-05
1.36396847389715e-05
1.70802270756232e-05
2.05207694122749e-05
2.39613117585394e-05
2.74018540951911e-05
3.08423964318428e-05
3.42829387781072e-05
3.77234811147590e-05
4.11640234514107e-05
4.46045657976751e-05
4.80451081343268e-05
5.14856504709785e-05
5.49261928172430e-05
5.83667351538947e-05
6.18072774905464e-05
6.52478198368109e-05
6.86883621734626e-05
7.21289045101143e-05
7.55694468563787e-05
7.90099891930304e-05
8.24505315296822e-05
8.58910738759466e-05
8.93316162125983e-05
8.77214280983091e-05
8.44276631557453e-05
8.11338982223842e-05
7.78401332890231e-05
7.45463683464593e-05
7.12526034130982e-05
6.79588384797371e-05
6.46650735371733e-05
6.13713086038122e-05
5.80775436704511e-05
5.47837787278873e-05
5.14900137945262e-05
4.81962488611651e-05
4.49024839186013e-05
4.16087189852402e-05
3.83149540518791e-05
3.50211891093153e-05
3.17274241759542e-05
2.84336592425931e-05
2.51398943000293e-05
2.18461293666682e-05
1.85523644333071e-05
1.52585994907433e-05
1.19648345573822e-05
1.08320242924814e-05
1.04195322501432e-05
1.00070402089575e-05
9.59454816777178e-06
9.18205612543358e-06
8.76956408424786e-06
8.35707204306215e-06
7.94458000072394e-06
7.53208795953823e-06
7.11959591835251e-06
6.70710387601431e-06
6.29461183482859e-06
5.88211979364288e-06
5.46962775130468e-06
5.05713571011896e-06
4.64464366893324e-06
4.23215162659504e-06
3.81965958540933e-06
3.40716754422361e-06
2.99467550188541e-06
2.58218346069969e-06
2.16969141951398e-06
1.75719937717577e-06
1.34470733599006e-06
4.32953714398191e-06
8.54975672867247e-06
1.27699763015719e-05
1.69901958744713e-05
2.12104154591619e-05
2.54306350320613e-05
2.96508546049607e-05
3.38710741896513e-05
3.80912937625507e-05
4.23115133354501e-05
4.65317329201406e-05
5.07519524930401e-05
5.49721720659395e-05
5.91923916506300e-05
6.34126112235294e-05
6.76328307964289e-05
7.18530503811194e-05
7.60732699540188e-05
8.02934895269182e-05
8.45137091116088e-05
8.87339286845082e-05
9.29541482574076e-05
9.71743678420982e-05
0.000101394587414998
9.95565252227336e-05
9.55154514654104e-05
9.14743777193777e-05
8.74333039733451e-05
8.33922302160218e-05
7.93511564699892e-05
7.53100827239565e-05
7.12690089666333e-05
6.72279352206006e-05
6.31868614745680e-05
5.91457877172447e-05
5.51047139712120e-05
5.10636402251794e-05
4.70225664678561e-05
4.29814927218235e-05
3.89404189757908e-05
3.48993452184676e-05
3.08582714724349e-05
2.68171977264023e-05
2.27761239690790e-05
1.87350502230464e-05
1.46939764770137e-05
1.06529027196904e-05
6.61182897365780e-06
6.82198546242715e-06
8.57804386163219e-06
1.03341022559309e-05
1.20901606502295e-05
1.38462190494345e-05
1.56022774437332e-05
1.73583358380319e-05
1.91143942372369e-05
2.08704526315356e-05
2.26265110258342e-05
2.43825694250393e-05
2.61386278193379e-05
2.78946862136366e-05
2.96507446128416e-05
3.14068030071403e-05
3.31628614014390e-05
3.49189198006440e-05
3.66749781949426e-05
3.84310365892413e-05
4.01870949884463e-05
4.19431533827450e-05
4.36992117770437e-05
4.54552701762487e-05
4.72113285705474e-05
3.98640464029898e-05
2.92064585425908e-05
1.85488707119688e-05
7.89128288134684e-06
-2.76630497905212e-06
-1.34238928096741e-05
-2.40814806402961e-05
-3.47390685006951e-05
-4.53966563313171e-05
-5.60542441619391e-05
-6.67118320223380e-05
-7.73694198529600e-05
-8.80270076835820e-05
-9.86845955439810e-05
-0.000109342183374603
-0.000119999771205225
-0.000130657359065624
-0.000141314946896246
-0.000151972534726868
-0.000162630122587267
-0.000173287710417889
-0.000183945298248511
-0.000194602886108910
-0.000205260473939532
-0.000205332115787846
-0.000201554322718056
-0.000197776529658820
-0.000193998736599584
-0.000190220943529793
-0.000186443150470558
-0.000182665357411322
-0.000178887564341531
-0.000175109771282296
-0.000171331978223060
-0.000167554185153269
-0.000163776392094033
-0.000159998599034798
-0.000156220805965007
-0.000152443012905771
-0.000148665219846536
-0.000144887426776745
-0.000141109633717509
-0.000137331840658273
-0.000133554047588483
-0.000129776254529247
-0.000125998461470011
-0.000122220668400220
-0.000118442875340985
-0.000110801659868751
-0.000101633044810288
-9.24644297774418e-05
-8.32958147445958e-05
-7.41271996861329e-05
-6.49585846532869e-05
-5.57899696204408e-05
-4.66213545619780e-05
-3.74527395291319e-05
-2.82841244962859e-05
-1.91155094378230e-05
-9.94689440497700e-06
-7.78279372130957e-07
8.39033568633190e-06
1.75589507191779e-05
2.67275657520240e-05
3.58961808104868e-05
4.50647958433329e-05
5.42334108761789e-05
6.34020259346418e-05
7.25706409674878e-05
8.17392560003338e-05
9.09078710587967e-05
0.000100076486091643
-4.83535078977615e-05
-0.000259089929379666
-0.000469826350272779
-0.000680562771165893
-0.000891299192647797
-0.00110203561354091
-0.00131277203443402
-0.00152350845591593
-0.00173424487680904
-0.00194498129770215
-0.00215571771918406
-0.00236645414007717
-0.00257719056097029
-0.00278792698245219
-0.00299866340334530
-0.00320939982423842
-0.00342013624572032
-0.00363087266661343
-0.00384160908750655
-0.00405234550898845
-0.00426308192988157
-0.00447381835077468
-0.00468455477225658
-0.00489529119314970
-0.00480584335523219
-0.00459771801890967
-0.00438959268316864
-0.00418146734742761
-0.00397334201110509
-0.00376521667536406
-0.00355709133962304
-0.00334896600330051
-0.00314084066755949
-0.00293271533181846
-0.00272458999549594
-0.00251646465975491
-0.00230833932401388
-0.00210021398769136
-0.00189208865195033
-0.00168396331620930
-0.00147583797988678
-0.00126771264414575
-0.00105958730840473
-0.000851461972082203
-0.000643336636341175
-0.000435211300600148
-0.000227085964277625
-1.89606285365979e-05
2.33540107530678e-05
1.15583853717856e-07
-2.31228429807046e-05
-4.63612698151271e-05
-6.95996967144770e-05
-9.28381235488995e-05
-0.000116076550383322
-0.000139314977282672
-0.000162553404117094
-0.000185791830951517
-0.000209030257850867
-0.000232268684685289
-0.000255507111519712
-0.000278745538419062
-0.000301983965253484
-0.000325222392087907
-0.000348460818987256
-0.000371699245821679
-0.000394937672656101
-0.000418176099555451
-0.000441414526389874
-0.000464652953224296
-0.000487891380123646
-0.000511129806958069
-0.000503216184927719
-0.000482986636529471
-0.000462757088187744
-0.000442527539846017
-0.000422297991447769
-0.000402068443106042
-0.000381838894764314
-0.000361609346366066
-0.000341379798024339
-0.000321150249682612
-0.000300920701284364
-0.000280691152942636
-0.000260461604600909
-0.000240232056202661
-0.000220002507860934
-0.000199772959519207
-0.000179543411120959
-0.000159313862779231
-0.000139084314437504
-0.000118854766039256
-9.86252176975288e-05
-7.83956693558016e-05
-5.81661209575536e-05
-3.79365726158263e-05
-2.21295274909532e-05
-8.07091383341035e-06
5.98769978485319e-06
2.00463134031167e-05
3.41049270606596e-05
4.81635406789231e-05
6.22221542971867e-05
7.62807679547295e-05
9.03393815729931e-05
0.000104397995191257
0.000118456608848799
0.000132515222467063
0.000146573836085327
0.000160632449742869
0.000174691063361133
0.000188749676979396
0.000202808290636939
0.000216866904255203
0.000230925517873466
0.000244984131531009
0.000259042745149273
0.000273101358767536
0.000287159972425079
0.000301218586043343
0.000299437960466068
0.000290869089486303
0.000282300218530479
0.000273731347574655
0.000265162476594889
0.000256593605639065
0.000248024734683241
0.000239455863703476
0.000230886992747651
0.000222318121791827
0.000213749250812062
0.000205180379856238
0.000196611508900413
0.000188042637920648
0.000179473766964824
0.000170904896009000
0.000162336025029234
0.000153767154073410
0.000145198283117586
0.000136629412137821
0.000128060541181996
0.000119491670226172
0.000110922799246407
0.000102353928290583
0.000106074330274149
0.000115061563549573
0.000124048796799886
0.000133036030050200
0.000142023263325624
0.000151010496575938
0.000159997729826251
0.000168984963101675
0.000177972196351989
0.000186959429602303
0.000195946662877727
0.000204933896128040
0.000213921129378354
0.000222908362653778
0.000231895595904092
0.000240882829154406
0.000249870062429829
0.000258857295680143
0.000267844528930457
0.000276831762205881
0.000285818995456194
0.000294806228706508
0.000303793461981932
0.000312780695232246
0.000306484596891330
0.000293638499252422
0.000280792401649405
0.000267946304046388
0.000255100206407480
0.000242254108804463
0.000229408011201446
0.000216561913562538
0.000203715815959521
0.000190869718356504
0.000178023620717596
0.000165177523114579
0.000152331425511562
0.000139485327872654
0.000126639230269637
0.000113793132666621
0.000100947035027712
8.81009374246955e-05
7.52548398216788e-05
6.24087421827704e-05
4.95626445797537e-05
3.67165469767369e-05
2.38704493378286e-05
1.10243517348118e-05
1.52207849327402e-05
2.67211599443539e-05
3.82215349238359e-05
4.97219099033179e-05
6.12222849149316e-05
7.27226598944137e-05
8.42230348738957e-05
9.57234098855093e-05
0.000107223784864991
0.000118724159844473
0.000130224534856087
0.000141724909835569
0.000153225284815051
0.000164725659826665
0.000176226034806147
0.000187726409785629
0.000199226784797243
0.000210727159776725
0.000222227534756207
0.000233727909767820
0.000245228284747302
0.000256728659726784
0.000268229034738398
0.000279729409717880
0.000275421385566957
0.000264338333177306
0.000253255280818622
0.000242172228459937
0.000231089176070287
0.000220006123711602
0.000208923071352917
0.000197840018963267
0.000186756966604583
0.000175673914245898
0.000164590861856248
0.000153507809497563
0.000142424757138878
0.000131341704749228
0.000120258652390543
0.000109175600031859
9.80925476422084e-05
8.70094952835238e-05
7.59264429248392e-05
6.48433905351888e-05
5.37603381765042e-05
4.26772858178196e-05
3.15942334281693e-05
2.05111810694846e-05
1.45266507232850e-05
1.07272012318712e-05
6.92775175107298e-06
3.12830227027475e-06
-6.71147221139009e-07
-4.47059670193723e-06
-8.27004618273546e-06
-1.20694956741492e-05
-1.58689451549474e-05
-1.96683946357457e-05
-2.34678441271594e-05
-2.72672936079577e-05
-3.10667430887559e-05
-3.48661925801697e-05
-3.86656420609679e-05
-4.24650915417661e-05
-4.62645410331799e-05
-5.00639905139781e-05
-5.38634399947763e-05
-5.76628894861901e-05
-6.14623389669883e-05
-6.52617884477865e-05
-6.90612379392003e-05
-7.28606874199985e-05
-7.38919713876845e-05
-7.36404469444030e-05
-7.33889225018243e-05
-7.31373980592455e-05
-7.28858736159640e-05
-7.26343491733853e-05
-7.23828247308065e-05
-7.21313002875250e-05
-7.18797758449463e-05
-7.16282514023676e-05
-7.13767269590861e-05
-7.11252025165073e-05
-7.08736780739286e-05
-7.06221536306471e-05
-7.03706291880683e-05
-7.01191047454896e-05
-6.98675803022081e-05
-6.96160558596293e-05
-6.93645314170506e-05
-6.91130069737691e-05
-6.88614825311903e-05
-6.86099580886116e-05
-6.83584336453301e-05
-6.81069092027513e-05
-6.83901618853794e-05
-6.89212381156569e-05
-6.94523143444505e-05
-6.99833905732441e-05
-7.05144668035215e-05
-7.10455430323151e-05
-7.15766192611087e-05
-7.21076954913862e-05
-7.26387717201798e-05
-7.31698479489734e-05
-7.37009241792508e-05
-7.42320004080444e-05
-7.47630766368380e-05
-7.52941528671155e-05
-7.58252290959091e-05
-7.63563053247027e-05
-7.68873815549801e-05
-7.74184577837737e-05
-7.79495340125673e-05
-7.84806102428448e-05
-7.90116864716384e-05
-7.95427627004320e-05
-8.00738389307094e-05
-8.06049151595030e-05
-8.03045476676974e-05
-7.96188769858559e-05
-7.89332063059301e-05
-7.82475356260042e-05
-7.75618649441627e-05
-7.68761942642369e-05
-7.61905235843111e-05
-7.55048529024695e-05
-7.48191822225437e-05
-7.41335115426179e-05
-7.34478408607764e-05
-7.27621701808506e-05
-7.20764995009248e-05
-7.13908288190832e-05
-7.07051581391574e-05
-7.00194874592316e-05
-6.93338167773901e-05
-6.86481460974643e-05
-6.79624754175385e-05
-6.72768047356969e-05
-6.65911340557711e-05
-6.59054633758453e-05
-6.52197926940038e-05
-6.45341220140780e-05
-6.12862998869104e-05
-5.68511392701811e-05
-5.24159786658434e-05
-4.79808180615057e-05
-4.35456574447763e-05
-3.91104968404386e-05
-3.46753362361009e-05
-3.02401756193715e-05
-2.58050150150338e-05
-2.13698544106961e-05
-1.69346937939667e-05
-1.24995331896290e-05
-8.06437258529133e-06
-3.62921196856195e-06
8.05948635775747e-07
5.24110924011344e-06
9.67626985684283e-06
1.41114304611805e-05
1.85465910655182e-05
2.29817516822476e-05
2.74169122865853e-05
3.18520728909230e-05
3.62872335076524e-05
4.07223941119901e-05
4.14522045827317e-05
4.04649015718287e-05
3.94775985636842e-05
3.84902955555398e-05
3.75029925446368e-05
3.65156895364923e-05
3.55283865283478e-05
3.45410835174448e-05
3.35537805093003e-05
3.25664775011559e-05
3.15791744902529e-05
3.05918714821084e-05
2.96045684739639e-05
2.86172654630609e-05
2.76299624549165e-05
2.66426594467720e-05
2.56553564358690e-05
2.46680534277245e-05
2.36807504195800e-05
2.26934474086770e-05
2.17061444005326e-05
2.07188413923881e-05
1.97315383814851e-05
1.87442353733406e-05
2.00705690566274e-05
2.25537210941833e-05
2.50368731248014e-05
2.75200251554195e-05
3.00031771929754e-05
3.24863292235935e-05
3.49694812542116e-05
3.74526332917675e-05
3.99357853223856e-05
4.24189373530036e-05
4.49020893905596e-05
4.73852414211777e-05
4.98683934517957e-05
5.23515454893517e-05
5.48346975199697e-05
5.73178495505878e-05
5.98010015881437e-05
6.22841536187618e-05
6.47673056493799e-05
6.72504576869358e-05
6.97336097175539e-05
7.22167617481720e-05
7.46999137857279e-05
7.71830658163460e-05
3.53517619447341e-05
-2.86367700877204e-05
-9.26253019413930e-05
-0.000156613833795066
-0.000220602365827520
-0.000284590897681193
-0.000348579429534865
-0.000412567961567320
-0.000476556493420992
-0.000540545025274665
-0.000604533557307120
-0.000668522089160792
-0.000732510621014465
-0.000796499153046919
-0.000860487684900592
-0.000924476216754264
-0.000988464748786719
-0.00105245328064039
-0.00111644181249406
-0.00118043034452652
-0.00124441887638019
-0.00130840740823386
-0.00137239594026632
-0.00143638447211999
-0.00141040644639163
-0.00133944514161116
-0.00126848383702895
-0.00119752253244674
-0.00112656122766627
-0.00105559992308406
-0.000984638618501853
-0.000913677313721381
-0.000842716009139173
-0.000771754704556966
-0.000700793399776494
-0.000629832095194287
-0.000558870790612079
-0.000487909485831607
-0.000416948181249399
-0.000345986876667192
-0.000275025571886720
-0.000204064267304512
-0.000133102962722304
-6.21416579418330e-05
8.81964664037484e-06
7.97809512225827e-05
0.000150742256003054
0.000221703560585262
0.000251516373020916
0.000260754939380372
0.000269993505714015
0.000279232072047658
0.000288470638407113
0.000297709204740756
0.000306947771074399
0.000316186337433854
0.000325424903767497
0.000334663470101140
0.000343902036460595
0.000353140602794238
0.000362379169127881
0.000371617735487337
0.000380856301820979
0.000390094868154623
0.000399333434514078
0.000408572000847721
0.000417810567181364
0.000427049133540819
0.000436287699874462
0.000445526266208105
0.000454764832567560
0.000464003398901203
0.000185547882048361
-0.000236754677778526
-0.000659057236425513
-0.00108135979507250
-0.00150366235489939
-0.00192596491354637
-0.00234826747219336
-0.00277057003202025
-0.00319287259066724
-0.00361517514931422
-0.00403747770914111
-0.00445978026778810
-0.00488208282643509
-0.00530438538626197
-0.00572668794490896
-0.00614899050355595
-0.00657129306338283
-0.00699359562202982
-0.00741589818067681
-0.00783820074050370
-0.00826050329915068
-0.00868280585779767
-0.00910510841762456
-0.00952741097627154
-0.00935826410032898
-0.00889339250537978
-0.00842852091172941
-0.00796364931807905
-0.00749877772312985
-0.00703390612947948
-0.00656903453582912
-0.00610416294087991
-0.00563929134722955
-0.00517441975357919
-0.00470954815862998
-0.00424467656497962
-0.00377980497132925
-0.00331493337638005
-0.00285006178272969
-0.00238519018907932
-0.00192031859413012
-0.00145544700047976
-0.000990575406829393
-0.000525703811880192
-6.08322182298266e-05
0.000404039375420538
0.000868910970369739
0.00133378256402010
0.00145677060414034
0.00139566749961782
0.00133456439526602
0.00127346129091422
0.00121235818639169
0.00115125508203989
0.00109015197768809
0.00102904887316557
0.000967945768813768
0.000906842664461966
0.000845739559939444
0.000784636455587642
0.000723533351235841
0.000662430246713319
0.000601327142361517
0.000540224038009716
0.000479120933487194
0.000418017829135392
0.000356914724783590
0.000295811620261069
0.000234708515909267
0.000173605411557465
0.000112502307034943
5.13992026831417e-05
-9.84894117392578e-05
-0.000296185609128153
-0.000493881805964691
-0.000691578002801229
-0.000889274200190124
-0.00108697039702666
-0.00128466659386320
-0.00148236279125209
-0.00168005898808863
-0.00187775518492517
-0.00207545138231407
-0.00227314757915060
-0.00247084377598714
-0.00266853997337604
-0.00286623617021257
-0.00306393236704911
-0.00326162856443801
-0.00345932476127455
-0.00365702095811108
-0.00385471715549998
-0.00405241335233652
-0.00425010954917305
-0.00444780574656195
-0.00464550194339849
-0.00460207757004455
-0.00442881904284121
-0.00425556051612194
-0.00408230198940268
-0.00390904346219934
-0.00373578493548007
-0.00356252640876081
-0.00338926788155746
-0.00321600935483820
-0.00304275082811893
-0.00286949230091559
-0.00269623377419632
-0.00252297524747706
-0.00234971672027372
-0.00217645819355445
-0.00200319966683519
-0.00182994113963184
-0.00165668261291258
-0.00148342408619331
-0.00131016555898997
-0.00113690703227070
-0.000963648505551439
-0.000790389978348095
-0.000617131451628830
-0.000518638523800366
-0.000460403995269560
-0.000402169466901461
-0.000343934938533361
-0.000285700410002555
-0.000227465881634456
-0.000169231353266356
-0.000110996824735551
-5.27622963674507e-05
5.47223200064907e-06
6.37067605314542e-05
0.000121941288899554
0.000180175817267654
0.000238410345798459
0.000296644874166559
0.000354879402534659
0.000413113931065464
0.000471348459433564
0.000529582987801664
0.000587817516332469
0.000646052044700569
0.000704286573068668
0.000762521101599474
0.000820755629967574
0.000799333869522917
0.000735020261014921
0.000670706652686616
0.000606393044358311
0.000542079435850315
0.000477765827522010
0.000413452219193705
0.000349138610685709
0.000284825002357404
0.000220511394029098
0.000156197785521103
9.18841771927973e-05
2.75705688644918e-05
-3.67430396435036e-05
-0.000101056647971809
-0.000165370256300114
-0.000229683864808110
-0.000293997473136415
-0.000358311081464721
-0.000422624689972716
-0.000486938298301022
-0.000551251906629327
-0.000615565515137323
-0.000679879123465628
-0.000700657862480172
-0.000697994748746310
-0.000695331635019889
-0.000692668521293468
-0.000690005407559606
-0.000687342293833185
-0.000684679180106764
-0.000682016066372902
-0.000679352952646481
-0.000676689838920060
-0.000674026725186198
-0.000671363611459777
-0.000668700497733356
-0.000666037383999494
-0.000663374270273073
-0.000660711156546652
-0.000658048042812790
-0.000655384929086369
-0.000652721815359947
-0.000650058701626086
-0.000647395587899665
-0.000644732474173243
-0.000642069360439382
-0.000639406246712961
-0.000622801807330612
-0.000598126074066647
-0.000573450340871625
-0.000548774607676603
-0.000524098874412638
-0.000499423141217615
-0.000474747408022594
-0.000450071674758628
-0.000425395941563606
-0.000400720208368584
-0.000376044475104619
-0.000351368741909597
-0.000326693008714575
-0.000302017275450610
-0.000277341542255588
-0.000252665809060566
-0.000227990075796601
-0.000203314342601579
-0.000178638609406557
-0.000153962876142592
-0.000129287142947570
-0.000104611409752548
-7.99356764885826e-05
-5.52599432935606e-05
-5.58969108631994e-05
-7.11885999924502e-05
-8.64802890789765e-05
-0.000101771978165503
-0.000117063667294754
-0.000132355356381280
-0.000147647045467806
-0.000162938734597057
-0.000178230423683583
-0.000193522112770110
-0.000208813801899360
-0.000224105490985887
-0.000239397180072413
-0.000254688869201664
-0.000269980558288190
-0.000285272247374716
-0.000300563936503967
-0.000315855625590493
-0.000331147314677020
-0.000346439003806270
-0.000361730692892797
-0.000377022381979323
-0.000392314071108574
-0.000407605760195100
-0.000403108802712987
-0.000387155260313952
-0.000371201717959490
-0.000355248175605029
-0.000339294633205994
-0.000323341090851533
-0.000307387548497072
-0.000291434006098037
-0.000275480463743575
-0.000259526921389114
-0.000243573378990079
-0.000227619836635618
-0.000211666294281157
-0.000195712751882122
-0.000179759209527660
-0.000163805667173199
-0.000147852124774164
-0.000131898582419703
-0.000115945040065242
-9.99914976662068e-05
-8.40379553117455e-05
-6.80844129572843e-05
-5.21308705582493e-05
-3.61773282037881e-05
-2.95194096743514e-05
-2.82431681005799e-05
-2.69669265303741e-05
-2.56906849601683e-05
-2.44144433863967e-05
-2.31382018161909e-05
-2.18619602459851e-05
-2.05857186722136e-05
-1.80332355318020e-05
-1.67569939580304e-05
-1.54807523878247e-05
-1.42045108176189e-05
-1.29282692438473e-05
-1.16520276736415e-05
-1.03757861034357e-05
-9.09954452966416e-06
-7.82330295945837e-06
-6.54706138925258e-06
-5.27081981548102e-06
-3.99457824527523e-06
-2.71833667506944e-06
-1.44209510129788e-06
-1.65853531092092e-07
-2.26889186622627e-06
-6.32835542392940e-06
-1.03878189702905e-05
-1.44472825166516e-05
-1.85067460743547e-05
-2.25662096207159e-05
-2.66256731670770e-05
-3.06851367247801e-05
-3.47446002711412e-05
-3.88040638175023e-05
-4.28635273752055e-05
-4.69229909215666e-05
-5.09824544679277e-05
-5.50419180256308e-05
-5.91013815719919e-05
-6.31608451183530e-05
-6.72203086760562e-05
-7.12797722224173e-05
-7.53392357687784e-05
-7.93986993264815e-05
-8.34581628728426e-05
-8.75176264192037e-05
-9.15770899769069e-05
-9.56365535232680e-05
-9.45146497505773e-05
-9.01718960057949e-05
-8.58291422731460e-05
-8.14863885404971e-05
-7.71436347957147e-05
-7.28008810630658e-05
-6.84581273304169e-05
-6.41153735856345e-05
-5.97726198529856e-05
-5.54298661203367e-05
-5.10871123755543e-05
-4.67443586429054e-05
-4.24016049102565e-05
-3.80588511654741e-05
-3.37160974328252e-05
-2.93733437001764e-05
-2.50305899553939e-05
-2.06878362227451e-05
-1.63450824900962e-05
-1.20023287453138e-05
-7.65957501266487e-06
-3.31682128001598e-06
1.02593246476643e-06
5.36868619741532e-06
7.50712876547260e-06
8.27532385291145e-06
9.04351893820398e-06
9.81171402349651e-06
1.05799091109354e-05
1.13481041962279e-05
1.21162992815204e-05
1.28844943689593e-05
1.36526894542518e-05
1.44208845395443e-05
1.51890796269832e-05
1.59572747122757e-05
1.67254697975682e-05
1.74936648850071e-05
1.82618599702996e-05
1.90300550555921e-05
1.97982501430310e-05
2.05664452283235e-05
2.13346403136161e-05
2.21028354010549e-05
2.28710304863474e-05
2.36392255716400e-05
2.44074206590788e-05
2.51756157443713e-05
2.35357798770450e-05
2.03990598930086e-05
1.72623399177361e-05
1.41256199424635e-05
1.09888999584271e-05
7.85217998315459e-06
4.71546000788206e-06
1.57874002384564e-06
-7.83141991073584e-06
-1.09681398860084e-05
-1.41048598612809e-05
-1.72415798453173e-05
-2.03782998205899e-05
-2.35150197958624e-05
-2.66517397798988e-05
-2.97884597551713e-05
-3.29251797304439e-05
-3.60618997144803e-05
-3.91986196897528e-05
-4.23353396650253e-05
-4.54720596490618e-05
-4.86087796243343e-05
-0.000460863406931780
-0.00112743457347656
-0.00179400573815896
-0.00246057690284136
-0.00312714806938615
-0.00379371923406855
-0.00446029039875095
-0.00512686156529573
-0.00579343272997813
-0.00646000389466053
-0.00712657506120531
-0.00779314622588772
-0.00845971739057012
-0.00912628855711490
-0.00979285972179730
-0.0104594308864797
-0.0111260020530245
-0.0117925732177069
-0.0124591443823893
-0.0131257155489341
-0.0137922867136165
-0.0144588578782989
-0.0151254290448436
-0.0157920002095261
-0.0154528030549739
-0.0144883985632033
-0.0135239940741273
-0.0125595895850512
-0.0115951850932806
-0.0106307806042046
-0.00966637611512849
-0.00870197162335791
-0.00773756713428184
-0.00677316264520578
-0.00580875815343519
-0.00484435366435913
-0.00387994917528306
-0.00291554468351248
-0.00195114019443641
-0.000986735705360348
-2.23312135897678e-05
0.000942073275486299
0.00190647776456237
0.00287088225633295
0.00383528674540901
0.00479969123448508
0.00576409572625566
0.00672850021533173
0.00746539046145351
0.00806085293637782
0.00865631540963842
0.00925177788289902
0.00984724035782333
0.0104427028310839
0.0110381653043445
0.0116336277792688
0.0122290902525294
0.0128245527257901
0.0134200152007144
0.0140154776739750
0.0146109401472356
0.0152064026221599
0.0158018650954205
0.0163973275686811
0.0169927900436054
0.0175882525168660
0.0181837149901266
0.0187791774650509
0.0193746399383115
0.0199701024115721
0.0205655648864964
0.0211610273597570
0.0208401139260821
0.0199082832175643
0.0189764525116499
0.0180446218057356
0.0171127910972178
0.0161809603913034
0.0152491296853891
0.0143172989768712
0.0133854682709569
0.0124536375650426
0.0115218068565247
0.0105899761506104
0.00965814544469607
0.00872631473617823
0.00779448403026389
0.00686265332434956
0.00593082261583172
0.00499899190991738
0.00406716120400305
0.00313533049548521
0.00220349978957088
0.00127166908365654
0.000339838375138703
-0.000591992330775632
-0.000982034967556314
-0.00101088555776738
-0.00103973614789783
-0.00106858673802829
-0.00109743732823936
-0.00112628791836981
-0.00115513850850027
-0.00118398909871133
-0.00121283968884179
-0.00124169027897225
-0.00127054086918331
-0.00129939145931377
-0.00132824204944422
-0.00135709263965529
-0.00138594322978575
-0.00141479381991620
-0.00144364441012727
-0.00147249500025772
-0.00150134559038818
-0.00153019618059924
-0.00155904677072970
-0.00158789736086016
-0.00161674795107122
-0.00164559854120168
-0.00159177981284442
-0.00148284820510538
-0.00137391659767069
-0.00126498499023599
-0.00115605338249695
-0.00104712177506226
-0.000938190167627571
-0.000829258559888529
-0.000720326952453838
-0.000611395345019147
-0.000502463737280105
-0.000393532129845414
-0.000284600522410723
-0.000175668914671681
-6.67373072369903e-05
4.21943001977005e-05
0.000151125907936743
0.000260057515371433
0.000368989122806124
0.000477920730545166
0.000586852337979857
0.000695783945414548
0.000804715553153590
0.000913647160588281
0.000960291500544304
0.000965410995464343
0.000970530490370077
0.000975649985275812
0.000980769480195850
0.000985888975101585
0.000991008470007320
0.000996127964927358
0.00100124745983309
0.00100636695473883
0.00101148644965887
0.00101660594456460
0.00102172543947034
0.00102684493439037
0.00103196442929611
0.00103708392420184
0.00104220341912188
0.00104732291402762
0.00105244240893335
0.00105756190385339
0.00106268139875912
0.00106780089366486
0.00107292038858490
0.00107803988349063
0.00132122941187058
0.00172313229726948
0.00212503518154548
0.00252693806582148
0.00292884095122038
0.00333074383549637
0.00373264671977237
0.00413454960517127
0.00453645248944727
0.00493835537372326
0.00534025825912216
0.00574216114339816
0.00614406402767415
0.00654596691307305
0.00694786979734905
0.00734977268162505
0.00775167556702395
0.00815357845129994
0.00855548133557594
0.00895738422097484
0.00935928710525084
0.00976118998952683
0.0101630928749257
0.0105649957592017
0.0105506405166010
0.0102587798548359
0.00996691919388632
0.00967505853293670
0.00938319787117163
0.00909133721022200
0.00879947654927238
0.00850761588750731
0.00792389456560806
0.00763203390384299
0.00734017324289336
0.00704831258194374
0.00675645192017867
0.00646459125922904
0.00617273059827942
0.00588086993651435
0.00558900927556472
0.00529714861461510
0.00500528795285003
0.00471342729190040
0.00442156663095078
0.00412970596918571
0.00383784530823608
0.00362629493713338
0.00347210905843929
0.00331792318017599
0.00316373730191270
0.00300955142321861
0.00285536554495531
0.00270117966669201
0.00254699378799793
0.00239280790973463
0.00223862203147133
0.00208443615277724
0.00193025027451394
0.00177606439625065
0.00162187851755656
0.00146769263929326
0.00131350676102996
0.00115932088233587
0.00100513500407258
0.000850949125809278
0.000696763247115190
0.000542577368851892
0.000388391490588594
0.000234205611894506
8.00197336312085e-05
-0.000106279904460347
-0.000315517943050463
-0.000524755981055975
-0.000733994019061487
-0.000943232057651603
-0.00115247009565711
-0.00136170813366263
-0.00157094617225274
-0.00178018421025825
-0.00198942224826377
-0.00219866028685388
-0.00240789832485939
-0.00261713636286491
-0.00282637440145502
-0.00303561243946053
-0.00324485047746605
-0.00345408851605616
-0.00366332655406167
-0.00387256459206719
-0.00408180263065730
-0.00429104066866281
-0.00450027870666832
-0.00470951674525844
-0.00491875478326395
-0.00488525305970811
-0.00467836579132496
-0.00447147852351985
-0.00426459125571474
-0.00405770398733160
-0.00385081671952648
-0.00364392945172137
-0.00343704218333823
-0.00323015491553312
-0.00302326764772801
-0.00281638037934486
-0.00260949311153975
-0.00240260584373464
-0.00219571857535149
-0.00198883130754638
-0.00178194403974127
-0.00157505677135812
-0.00136816950355301
-0.00116128223574790
-0.000954394967364752
-0.000747507699559642
-0.000540620431754531
-0.000333733163371384
-0.000126845895566273
-7.46324520884741e-05
-0.000132900312040834
-0.000191168171830395
-0.000249436031619956
-0.000307703891572316
-0.000365971751361878
-0.000424239611151439
-0.000482507471103799
-0.000540775330893360
-0.000599043190682921
-0.000657311050635281
-0.000715578910424842
-0.000773846770214404
-0.000832114630166764
-0.000890382489956325
-0.000948650349745886
-0.00100691820969825
-0.00106518606948781
-0.00112345392927737
-0.00118172178922973
-0.00123998964901929
-0.00129825750880885
-0.00135652536876121
-0.00141479322855077
-0.00137893155272054
-0.00127583449390933
-0.00117273743538617
-0.00106964037686301
-0.000966543318051804
-0.000863446259528645
-0.000760349201005485
-0.000657252142194275
-0.000554155083671115
-0.000451058025147956
-0.000347960966336746
-0.000244863907813586
-0.000141766849290427
-3.86697904792169e-05
6.44272680439428e-05
0.000167524326567103
0.000270621385378312
0.000373718443901472
0.000476815502424632
0.000579912561235841
0.000683009619759001
0.000786106678282160
0.000889203737093370
0.000992300795616530
0.000990736540924569
0.000909137164002530
0.000827537787308476
0.000745938410614423
0.000664339033692383
0.000582739656998330
0.000501140280304277
0.000419540903382237
0.000337941526688184
0.000256342149994130
0.000174742773072091
9.31433963780371e-05
1.15440196839837e-05
-7.00553572380558e-05
-0.000151654733932109
-0.000233254110626163
-0.000314853487548202
-0.000396452864242256
-0.000478052240936309
-0.000559651617858349
-0.000641250994552402
-0.000722850371246456
-0.000804449748168495
-0.000886049124862548
-0.000922002424149209
-0.000923049899481582
-0.000924097374811030
-0.000925144850140477
-0.000926192325472851
-0.000927239800802298
-0.000928287276131745
-0.000929334751464119
-0.000930382226793566
-0.000931429702123013
-0.000932477177455387
-0.000933524652784834
-0.000934572128114281
-0.000935619603446655
-0.000936667078776102
-0.000937714554105550
-0.000938762029437923
-0.000939809504767371
-0.000940856980096818
-0.000941904455429192
-0.000942951930758639
-0.000943999406088086
-0.000945046881420460
-0.000946094356749907
-0.00100163189529696
-0.00109883830605647
-0.00119604471654438
-0.00129325112703230
-0.00139045753779180
-0.00148766394827972
-0.00158487035876763
-0.00168207676952714
-0.00177928318001505
-0.00187648959050297
-0.00197369600126248
-0.00207090241175039
-0.00216810882223831
-0.00226531523299781
-0.00236252164348573
-0.00245972805397364
-0.00255693446473315
-0.00265414087522106
-0.00275134728570898
-0.00284855369646848
-0.00294576010695640
-0.00304296651744431
-0.00314017292820382
-0.00323737933869173
-0.00311564196263275
-0.00282647698401328
-0.00253731200620172
-0.00224814702839017
-0.00195898204977070
-0.00166981707195915
-0.00138065209414760
-0.00109148711552813
-0.000802322137716576
-0.000513157159905024
-0.000223992181285555
6.51727965259974e-05
0.000354337774337549
0.000643502752957019
0.000932667730768571
0.00122183270858012
0.00151099768719959
0.00180016266501114
0.00208932764282270
0.00237849262144217
0.00266765759925372
0.00295682257706527
0.00324598755568474
0.00353515253349629
0.00341002132466176
0.00296807538310645
0.00252612944278592
0.00208418350246539
0.00164223756091008
0.00120029162058955
0.000758345680269020
0.000316399738713707
-0.000125546201606823
-0.000567492141927352
-0.00100943808348266
-0.00145138402380319
-0.00189332996412372
-0.00233527590567904
-0.00277722184599957
-0.00321916778632010
-0.00366111372787541
-0.00410305966819594
-0.00454500560851647
-0.00498695155007178
-0.00542889749039231
-0.00587084343071284
-0.00631278937226815
-0.00675473531258868
-0.00688300655072017
-0.00677140889823587
-0.00665981124606336
-0.00654821359389086
-0.00643661594140655
-0.00632501828923404
-0.00621342063706154
-0.00610182298457723
-0.00599022533240473
-0.00587862768023222
-0.00576703002774791
-0.00565543237557541
-0.00554383472340290
-0.00543223707091860
-0.00532063941874609
-0.00520904176657359
-0.00509744411408928
-0.00498584646191677
-0.00487424880974427
-0.00476265115725996
-0.00465105350508746
-0.00453945585291495
-0.00442785820043064
-0.00431626054825814
-0.00469446976636442
-0.00547343006300878
-0.00625239035747675
-0.00703135065194472
-0.00781031094858908
-0.00858927124305704
-0.00936823153752501
-0.0101471918341694
-0.0109261521286373
-0.0117051124231053
-0.0124840727197497
-0.0132630330142176
-0.0140419933086856
-0.0148209536053300
-0.0155999138997979
-0.0163788741942659
-0.0171578344909103
-0.0179367947853782
-0.0187157550798462
-0.0194947153764906
-0.0202736756709585
-0.0210526359654265
-0.0218315962620709
-0.0226105565565388
-0.0227381459383075
-0.0223327954803777
-0.0219274450235803
-0.0215220945667830
-0.0211167441088531
-0.0207113936520558
-0.0203060431952585
-0.0199006927373286
-0.0194953422805313
-0.0190899918237339
-0.0186846413658041
-0.0182792909090067
-0.0178739404522094
-0.0174685899942795
-0.0170632395374822
-0.0166578890806848
-0.0162525386227550
-0.0158471881659576
-0.0154418377091603
-0.0150364872512304
-0.0146311367944331
-0.0142257863376358
-0.0138204358797059
-0.0134150854229086
-0.0129590533518136
-0.0124615545039239
-0.0119640556574242
-0.0114665568109245
-0.0109690579630348
-0.0104715591165351
-0.00997406027003539
-0.00947656142214570
-0.00897906257564600
-0.00848156372914630
-0.00798406488125661
-0.00748656603475691
-0.00698906718825721
-0.00649156834036752
-0.00599406949386782
-0.00549657064736812
-0.00499907179947842
-0.00450157295297873
-0.00400407410647903
-0.00350657525858933
-0.00300907641208963
-0.00251157756558993
-0.00201407871770024
-0.00151657987120054
-0.00126471941517689
-0.00121383582428657
-0.00116295223353841
-0.00111206864279026
-0.00106118505189993
-0.00101030146115178
-0.000959417870403621
-0.000908534279513297
-0.000857650688765140
-0.000806767098016984
-0.000755883507126660
-0.000704999916378503
-0.000654116325630347
-0.000603232734740023
-0.000552349143991866
-0.000501465553243710
-0.000450581962353386
-0.000399698371605229
-0.000348814780857073
-0.000297931189966749
-0.000247047599218592
-0.000196164008470435
-0.000145280417580112
-9.43968268319550e-05
-7.70015171044195e-05
-8.70057101044971e-05
-9.70099030766232e-05
-0.000107014096048749
-0.000117018289048827
-0.000127022482020953
-0.000137026674993079
-0.000147030867993157
-0.000157035060965283
-0.000167039253937409
-0.000177043446937487
-0.000187047639909613
-0.000197051832881739
-0.000207056025881816
-0.000217060218853943
-0.000227064411826069
-0.000237068604826146
-0.000247072797798272
-0.000257076990770399
-0.000267081183770476
-0.000277085376742602
-0.000287089569714728
-0.000297093762714806
-0.000307097955686932
-0.000302899332424732
-0.000287080223088742
-0.000271261113796950
-0.000255442004505157
-0.000239622895169167
-0.000223803785877374
-0.000207984676585582
-0.000192165567249591
-0.000176346457957799
-0.000160527348666007
-0.000144708239330016
-0.000128889130038224
-0.000113070020746431
-9.72509114104407e-05
-8.14318021186483e-05
-6.56126928268559e-05
-4.97935834908654e-05
-3.39744741990730e-05
-1.81553649072806e-05
-2.33625557129011e-06
1.34828537205023e-05
2.93019630122947e-05
4.51210723482852e-05
6.09401816400776e-05
6.94431609051569e-05
7.15445263915540e-05
7.36458918720799e-05
7.57472573526058e-05
7.78486228390028e-05
7.99499883195287e-05
8.20513538000546e-05
8.41527192864517e-05
8.62540847669776e-05
8.83554502475035e-05
9.04568157339005e-05
9.25581812144264e-05
9.46595466949524e-05
9.67609121813494e-05
9.88622776618753e-05
0.000100963643142401
0.000103065008628798
0.000105166374109324
0.000107267739589850
0.000109369105076247
0.000111470470556773
0.000113571836037299
0.000115673201523696
0.000117774567004222
7.76195269973413e-05
4.90131908912657e-07
-7.66392629640189e-05
-0.000153768657836950
-0.000230898052925379
-0.000308027447798311
-0.000385156842671242
-0.000462286237759671
-0.000539415632632602
-0.000616545027505534
-0.000693674422593963
-0.000770803817466894
-0.000847933212339826
-0.000925062607428254
-0.00100219200230119
-0.00107932139717412
-0.00115645079226255
-0.00123358018713548
-0.00131070958200841
-0.00138783897709684
-0.00146496837196977
-0.00154209776684270
-0.00161922716193113
-0.00169635655680406
-0.00177781366069237
-0.00186305751021392
-0.00194830135949730
-0.00203354520878067
-0.00211878905830222
-0.00220403290758560
-0.00228927675686898
-0.00237452060639052
-0.00245976445567390
-0.00254500830495728
-0.00263025215447882
-0.00271549600376220
-0.00280073985304558
-0.00288598370256713
-0.00297122755185051
-0.00305647140113388
-0.00314171525065543
-0.00322695909993881
-0.00331220294922219
-0.00339744679874373
-0.00348269064802711
-0.00356793449731049
-0.00365317834683204
-0.00373842219611541
-0.00370806991427848
-0.00357657101716723
-0.00344507212042338
-0.00331357322367953
-0.00318207432656828
-0.00305057542982444
-0.00291907653308059
-0.00278757763596934
-0.00265607873922549
-0.00252457984248165
-0.00239308094537040
-0.00226158204862655
-0.00213008315188270
-0.00199858425477145
-0.00186708535802761
-0.00173558646128376
-0.00160408756417251
-0.00147258866742866
-0.00134108977068482
-0.00120959087357357
-0.00107809197682972
-0.000946593080085872
-0.000815094182974622
-0.000683595286230775
-0.000610010586493978
-0.000587100809162837
-0.000564191031895705
-0.000541281254628573
-0.000518371477297431
-0.000495461700030299
-0.000472551922763167
-0.000449642145432026
-0.000426732368164894
-0.000403822590897761
-0.000380912813566620
-0.000358003036299488
-0.000335093259032356
-0.000312183481701215
-0.000289273704434083
-0.000266363927166951
-0.000243454149835809
-0.000220544372568677
-0.000197634595301545
-0.000174724817970404
-0.000151815040703272
-0.000128905263436140
-0.000105995486104998
-8.30857088378663e-05
-7.08401193232932e-05
-6.79256941003619e-05
-6.50112688855733e-05
-6.20968436707848e-05
-5.91824184478535e-05
-5.62679932330650e-05
-5.33535680182765e-05
-5.04391427953452e-05
-4.75247175805567e-05
-4.46102923657683e-05
-4.16958671428369e-05
-3.87814419280484e-05
-3.58670167132599e-05
-3.29525914903286e-05
-3.00381662755401e-05
-2.71237410607516e-05
-2.42093158378203e-05
-2.12948906230318e-05
-1.83804654082433e-05
-1.54660401853120e-05
-1.25516149705235e-05
-9.63718975573504e-06
-6.72276453280373e-06
-3.80833931801524e-06
4.19548153627506e-06
1.69603499685485e-05
2.97252183651573e-05
4.24900867617662e-05
5.52549551940396e-05
6.80198235906484e-05
8.07846919872573e-05
9.35495604195307e-05
0.000106314428816140
0.000119079297212748
0.000131844165645022
0.000144609034041631
0.000157373902438239
0.000170138770870513
0.000221198244492613
0.000233963112889222
0.000246727981321495
0.000259492849718104
0.000272257718114713
0.000285022586546986
0.000297787454943595
0.000311745530197511
0.000326819831265296
0.000341894132290964
0.000356968433316633
0.000372042734384418
0.000387117035410086
0.000402191336435754
0.000417265637503540
0.000432339938529208
0.000447414239554876
0.000462488540622662
0.000477562841648330
0.000492637142673998
0.000507711443741784
0.000522785744767452
0.000537860045793120
0.000552934346860906
0.000568008647886574
0.000583082948912242
0.000598157249980028
0.000613231551005696
0.000628305852031364
0.000643380153099150
0.000658454454124818
0.000588836174761285
0.000439989351894180
0.000291142529442948
0.000142295706991716
-6.55111587538908e-06
-0.000155397938326621
-0.000304244760777853
-0.000453091583644958
-0.000601938406096190
-0.000750785228547422
-0.000899632051414528
-0.00104847887386576
-0.00119732569631699
-0.00134617251918410
-0.00149501934163533
-0.00164386616408656
-0.00179271298695367
-0.00194155980940490
-0.00209040663185613
-0.00223925345472324
-0.00238810027717447
-0.00253694709962570
-0.00268579392249280
-0.00283464074494404
-0.00389343536240682
-0.00580347147239817
-0.00771350757705295
-0.00962354368170772
-0.0115335797916991
-0.0134436158963538
-0.0153536520010086
-0.0172636881110000
-0.0191737242156547
-0.0210837603203095
-0.0229937964303009
-0.0249038325349556
-0.0268138686396104
-0.0287239047496018
-0.0306339408542565
-0.0325439769589113
-0.0344540130689027
-0.0363640491735574
-0.0382740852782122
-0.0401841213882036
-0.0420941574928583
-0.0440041935975131
-0.0459142297075044
-0.0478242658121592
-0.0477394744893918
-0.0457885542740887
-0.0438376340642363
-0.0418867138543840
-0.0399357936390809
-0.0379848734292286
-0.0360339532193762
-0.0340830330040731
-0.0321321127942208
-0.0301811925843685
-0.0282302723690654
-0.0262793521592130
-0.0243284319493607
-0.0223775117340576
-0.0204265915242053
-0.0184756713143529
-0.0165247510990498
-0.0145738308891975
-0.0126229106793452
-0.0106719904640420
-0.00872107025418972
-0.00677015004433741
-0.00481922982903428
-0.00286830961918196
-0.00184728197749557
-0.00175614690545340
-0.00166501183366586
-0.00157387676187831
-0.00148274168983614
-0.00139160661804860
-0.00130047154626105
-0.00120933647421888
-0.00111820140243134
-0.00102706633064379
-0.000935931258601620
-0.000844796186814076
-0.000753661115026532
-0.000662526042984360
-0.000571390971196816
-0.000480255899409272
-0.000389120827367099
-0.000297985755579555
-0.000206850683792011
-0.000115715611749838
-2.45805399622943e-05
6.65545318252497e-05
0.000157689603867422
0.000248824675654966
0.000276257508981582
0.000264167707260602
0.000252077905539623
0.000239988103784865
0.000227898302063885
0.000215808500342905
0.000203718698588147
0.000191628896867168
0.000179539095146188
0.000167449293391430
0.000155359491670451
0.000143269689949471
0.000131179888194713
0.000119090086473733
0.000107000284752754
9.49104829979957e-05
8.28206812770161e-05
7.07308795560366e-05
5.86410778012785e-05
4.65512760802989e-05
3.44614743593194e-05
2.23716726045613e-05
1.02818708835817e-05
2.48170560113937e-06
-1.02882324458010e-06
-4.53935208049127e-06
-8.04988091640243e-06
-1.15604097621219e-05
-1.50709385980331e-05
-1.85814674339442e-05
-2.20919962796637e-05
-2.56025251155749e-05
-2.91130539514861e-05
-3.26235827972055e-05
-3.61341116331167e-05
-3.96446404690279e-05
-4.31551693147473e-05
-4.66656981506585e-05
-5.01762269865697e-05
-5.36867558322891e-05
-5.71972846682003e-05
-6.07078135041115e-05
-6.42183423498310e-05
-6.77288711857421e-05
-7.12394000216533e-05
-7.47499288673728e-05
-7.82604577032839e-05
-0.000146480334381929
-0.000279409559395297
-0.000412338784037265
-0.000545268008679233
-0.000678197233692601
-0.000811126458334570
-0.000944055682976538
-0.00107698490798991
-0.00120991413263187
-0.00134284335727384
-0.00147577258228721
-0.00160870180692918
-0.00174163103157115
-0.00187456025658451
-0.00200748948122648
-0.00214041870586845
-0.00227334793088182
-0.00240627715552379
-0.00253920638016576
-0.00267213560517912
-0.00280506482982109
-0.00293799405446306
-0.00307092327947643
-0.00320385250411840
-0.00325787012918109
-0.00323297615444790
-0.00320808217978426
-0.00318318820512062
-0.00315829423038742
-0.00313340025572378
-0.00310850628106014
-0.00308361230632695
-0.00305871833166331
-0.00303382435699967
-0.00300893038226648
-0.00298403640760284
-0.00295914243293920
-0.00293424845820600
-0.00290935448354236
-0.00288446050887873
-0.00285956653414553
-0.00283467255948189
-0.00280977858481825
-0.00278488461008506
-0.00275999063542142
-0.00273509666075778
-0.00271020268602459
-0.00268530871136095
-0.00262498456025517
-0.00252923023237370
-0.00243347590475977
-0.00233772157714583
-0.00224196724926436
-0.00214621292165043
-0.00205045859403649
-0.00195470426615502
-0.00185894993854109
-0.00176319561092715
-0.00166744128304568
-0.00157168695543174
-0.00147593262781781
-0.00138017829993634
-0.00128442397232240
-0.00118866964470847
-0.00109291531682700
-0.000997160989213063
-0.000901406661599128
-0.000805652333717658
-0.000709898006103722
-0.000614143678489787
-0.000518389350608317
-0.000422635022994382
-0.000366904343491249
-0.000353957563739030
-0.000341010784022984
-0.000328064004306939
-0.000315117224554720
-0.000302170444838674
-0.000289223665122629
-0.000276276885370410
-0.000263330105654365
-0.000250383325938319
-0.000237436546186100
-0.000224489766470055
-0.000211542986754009
-0.000198596207001790
-0.000185649427285745
-0.000172702647569699
-0.000159755867817481
-0.000146809088101435
-0.000133862308385389
-0.000120915528633171
-0.000107968748917125
-9.50219692010793e-05
-8.20751894488607e-05
-6.91284097328151e-05
-6.09340537943560e-05
-5.78198749985426e-05
-5.47056962114302e-05
-5.15915174243177e-05
-4.84773386285044e-05
-4.53631598413919e-05
-4.22489810542795e-05
-3.91348022584661e-05
-3.60206234713537e-05
-3.29064446842412e-05
-2.97922658884279e-05
-2.66780871013154e-05
-2.35639083142030e-05
-2.04497295183896e-05
-1.73355507312772e-05
-1.42213719441647e-05
-1.11071931483514e-05
-7.99301436123892e-06
-4.87883557412648e-06
-1.76465677831312e-06
1.34952200879933e-06
4.46370079591178e-06
7.57787959172514e-06
1.06920583788376e-05
1.20411862400063e-05
1.15035355200287e-05
1.09658848015532e-05
1.04282340830777e-05
9.89058336310009e-06
9.35293264462462e-06
8.81528192614914e-06
8.27763120617149e-06
7.73998048769602e-06
7.20232976922054e-06
6.66467904924289e-06
6.12702833076742e-06
5.58937761229194e-06
5.05172689231429e-06
4.51407617383882e-06
3.97642545536334e-06
3.43877473538569e-06
2.90112401691022e-06
2.36347329843474e-06
1.82582257845709e-06
1.28817185998162e-06
7.50521141506144e-07
2.12870421528492e-07
